solver_type L2R_L2LOSS_SVC_DUAL
nr_class 2
label 1 2
nr_feature 113837
bias -1.000000000000000
w
1.101758200864497 
-0.1891579342155306 
0.1381039436501801 
-0.02266770671679096 
0 
-0.01736488195470535 
0.04126182027398667 
0 
0.2531569928725371 
0.009183349653166820 
-0.03364725294469380 
-0.07575876620183683 
-0.004937973573796583 
0.1134628988319562 
0 
-0.1153727235726797 
0.05921648483562148 
0.02904250821987188 
-0.0009839089462468475 
0 
0.06368701119067660 
0.01715583091544361 
0 
0.08825925315365808 
0.04755069308610600 
0.04403031766334341 
-0.1320977639283996 
0.03269886902978503 
-0.0009839089462468475 
-0.03032667292223201 
0.03142303858806717 
0.03177783282537802 
-0.03018933238424604 
-0.06076803923363908 
0 
0.1694111195942003 
-0.02920333524901079 
0.03857820814694363 
-0.03214842434373201 
0.07125443001631951 
-0.08455525700507156 
-0.01490920624168419 
-0.02427585478338971 
0.02347280924760785 
-0.01350221676707058 
-0.06125837317249308 
-0.005261131114719167 
0.06368349364150579 
0.5802780924446708 
0.1880645005051802 
-0.1157790355026790 
0.06003159081419598 
0 
-0.02829418556404875 
-1.084202172485504e-19 
-0.004888737885987774 
0 
0.06389568104170322 
0.1157475210182480 
0.07396423808754786 
-0.04981774585033090 
-0.1458583615729678 
0.04345768375933559 
-0.05782255905242557 
-0.03371808894157271 
0.04906590873719296 
-0.08178786794283160 
-0.005416704046833195 
0.05580321688596904 
-0.07456438788350975 
-0.01538464505338129 
0.02592727841299366 
-0.02747345944155048 
-0.01280876385835896 
0.03234868897383608 
0.1024795935946454 
0.01282302851002396 
-0.2053047910104236 
-0.1123250669379797 
-0.01376268567223702 
0.02654234579876019 
0.06556087367763051 
0.09602278937648641 
0 
0.008909139775764194 
0 
-0.09694174338582653 
0 
0.01699438408338238 
0.04626895604907560 
0.02635820315992968 
0.005516856948108167 
0.04297870083148029 
0.02491980159738744 
-0.1457881750491379 
-0.05630230411104006 
-0.01526032259587374 
-0.05823556379250749 
-0.02058666115652582 
0.02069578760603392 
-0.03381826562665248 
0.5927493380735797 
0.03385747367351605 
-0.007669552300373311 
0.1006278913844426 
0.06093177069129072 
0.01877828354664611 
-0.1157810431731329 
0.09325431221076065 
0.05416632021214290 
0.05833781668923466 
-0.1055264319229281 
-0.01050587129398427 
-0.08646456210947642 
-0.01040018724941685 
-0.04108673532536986 
-0.09659893379600120 
0.01098164959194738 
-0.1573214736767731 
-0.06281344668304843 
-0.02088013876205068 
0.1370572495123264 
0.01098164959194738 
0.02830972301563620 
-0.08458813910660659 
0.01839566591775346 
0.01726758001101571 
0.01726758001101571 
-0.03753482767051667 
-0.04409749964680814 
-0.04858851646719529 
-0.05655375699108708 
-0.07950187232170831 
-0.05889760167479446 
-0.03800716238558900 
-0.1002689309213752 
0.04970123159021130 
-0.03344217694191298 
0.02565116161285889 
0.01987836064516042 
0.04271001973987118 
-0.04914507113296457 
0.03960707589638747 
0.002892605294586661 
-0.09647916310234997 
0.01258321894139502 
0.01854659460549810 
0.01854659460549810 
-0.02359183380167917 
-0.05647906332783315 
0 
0.0009292942386456840 
0 
0.03156801969495415 
-0.04717134805647286 
-0.05489635980642146 
0.0009292942386456840 
0 
-0.01781719660755203 
-0.01051476862791175 
0.005546609233748422 
0 
-0.06142731845881243 
0.03403850139885307 
0.01264805857369481 
0.04863312552320870 
0.05886748854105958 
-0.03103891409216138 
0.01707307559718879 
-0.02201041906199451 
0.03652687509991973 
0.1196722414744087 
-0.01929816629194148 
0.03739254422349427 
0.04816046241139763 
0.05891321396369554 
0 
-0.03036974143391644 
0.009307715271360276 
0.08811127314671158 
-0.05217713703480864 
-0.05489635980642147 
0.002061209692513979 
-0.02330612330297216 
-0.04594809766547006 
0.0001191734979289913 
0 
-0.05823902342735400 
-3.794707603699266e-19 
0.07014078578106810 
0.002512231008413345 
-0.07942733618125318 
-0.02783358076409316 
0.006977782580404055 
0.004365970807769010 
-0.07112510178332827 
-0.002853661253462579 
0.02353347856856664 
0.04264452038451240 
-0.03847815906415120 
0.03147196204995424 
-0.06358185768728819 
-0.008515508184812028 
0.05746110534370112 
-0.02457086906067704 
0.09963418834026468 
-0.04353602363007533 
0.02302278869250012 
-0.07776560985287305 
0.02787298012448559 
0.004812417268727744 
0.06138010477033095 
0 
0 
0 
-0.01408194084409969 
-0.02179021158965417 
-0.06343910419875728 
0.01674734007674474 
0 
0 
0 
0 
0 
0.01355701955244957 
0 
0.008524603853032922 
0 
0.007947276573323999 
-0.06752193489491076 
0 
-3.252606517456513e-19 
0.009490591487516260 
0 
0.007947276573323999 
0.02629971514286606 
0.002711079677719398 
0.01278548071414376 
0.03697023716561814 
-0.007654581106346997 
0.008717899595777056 
0.0009714351124083657 
0 
0 
-0.04551179122304196 
0 
-0.01838100937555249 
0.09810005921753909 
0.007553192514775013 
-0.04829943553070941 
-0.01674236819582968 
0.003323655578066473 
-0.05333673931912347 
0.04569643649435262 
0.02305718684866972 
0.05841425378351620 
-0.007726426578476961 
0.04456894777279068 
0.09599622063097214 
0 
0 
0.008524603853032922 
-0.02589344685465542 
0.007947276573323999 
0.009573961469156206 
0.002711079677719398 
-0.01506873802668591 
-0.05262443234277013 
0.002711079677719398 
-0.03415787595992355 
0.01897042810825626 
-0.07103024909205640 
-0.02088413912766449 
-0.03826476068117171 
0 
-0.01808171576087611 
0 
-0.02023685987431362 
0 
-0.02553991726835226 
-0.05208262763806201 
0.006789395998440344 
0.01223304059568440 
0.003495628199079144 
0.1357577764078803 
0 
-0.02553991726835226 
-0.04941345497561173 
0.06194439793656367 
0.008001263686494587 
0.003495628199079144 
0.004132916420819547 
0.005168538348205813 
0 
-0.01034817862151721 
-0.02399819891938698 
-0.04774432355472402 
0.03350130340874021 
0.007043770952157212 
-0.04885070528831158 
-0.01843297428051633 
0.009806615569617066 
-0.1265028353297902 
-0.01370996375405794 
0.1239595306719836 
0.004132916420819544 
-0.01488338499437210 
0 
0.03495540787988451 
-0.05189096793037026 
-0.08952568253948956 
0.01074408982226654 
0.05043167689524491 
0.06698410446615566 
-0.02770014687472971 
0.08054633839699336 
0.02272302765976906 
0.02966521657854069 
0.01226098119646323 
-0.04102258895171611 
0.03282403422041716 
0.02888540263579220 
0 
0.009969984331131256 
0.008142125691430186 
-0.03370636311456112 
0.01990706104584902 
0.04403610308493287 
0.04161607097881047 
0.02266987575984160 
0.01972108467256237 
0.04187155270974526 
0.01501881067120855 
-0.04836993693181459 
0.08163669847242506 
-0.01792747645798234 
0.03599933057148317 
0.01475754911092524 
-0.01633451527450713 
0 
0.05558339783986691 
0.008119867175834260 
-0.02597482401579376 
0.01004747470184404 
0.01345212575132631 
-0.01977238624893132 
0 
-0.1036099949908326 
0.1263802455323320 
0.004784973255869819 
0.04348159866019988 
0.001054933419594404 
-0.07535688685251529 
-0.001943953921023226 
0.01685769645401834 
0.02019052746231666 
-0.03316694971656257 
-0.008376160546554611 
0 
0.03222639231582229 
0.03763741223349566 
0.03720885037780859 
0.02791791490834919 
-0.08810927131378171 
-0.004099150826373884 
0 
-0.04880077018874373 
0.03720885037780858 
0.03545521239936403 
-0.02269806830117160 
0.07929769320124153 
0 
-0.01913392252667152 
0.03108788150052992 
-0.02676935394183629 
-0.07983696995445799 
0.004172570628495266 
0.03130325288834185 
-0.08580040329702450 
-0.0002682038740247488 
0.09624674253727893 
0.03201366352821049 
4.336808689942018e-19 
0 
0.003957992353788882 
0.002398135691071398 
-0.09443121534139101 
0.002278067687265595 
-0.009278256784869278 
-0.01198804172178654 
0 
0.02958412769641195 
-0.05180519423105928 
0.02355129408083314 
0.08264581071208656 
0.1186637621621369 
0.05749451799813624 
0 
0.06814320095110492 
0 
0.05003313518245461 
-0.02984550926504119 
0.1714145541498336 
0.01257324761045910 
0 
0.05412216302066832 
0.04000024367488358 
-0.02441754064842927 
0.005100834134366424 
0 
0.04763024510849640 
0.06993608133364157 
0.03658232177999739 
-0.007640418714195327 
0 
0.1347206365102848 
0.01088754580706700 
-0.01727947097236883 
0.03507412969167850 
-0.08787524762737013 
-0.08667182415816417 
0.01772817415402382 
0.01014567559403770 
0.03718816226505371 
0 
-0.001637279627752740 
0.05272051630795076 
-0.05261033798426552 
0.04628904776464097 
-0.1106691747293957 
0 
0.05413979005778331 
0.07459679565941911 
0 
0.03000942190554639 
-0.06720655259259540 
0 
0.08788273789389497 
-0.007941859000005030 
-0.06554564684559032 
0.03399330795858685 
-5.457676574135571e-05 
-0.003685679995487890 
-0.05337597056175810 
0.01626505144196742 
0 
0 
-0.07402692015185347 
0 
0 
-0.04909545902395224 
-0.02253527861031253 
0 
-0.1240146826676718 
-0.02095677341411907 
0 
-0.05219230446674606 
-0.01006370100509330 
-0.05613485584858989 
0.008412481052459830 
0.05529874859551506 
0.02792276244511447 
0.01432004295225717 
0.09328578193008619 
0.01891635066679436 
-0.01196417121871985 
-0.02745724957118712 
0.06408522597125274 
-0.04774424723012281 
0.03049532268749892 
-0.02697522122743204 
0.003053454104304681 
0.01210794729801176 
-0.04748585720621312 
-0.08216898523462254 
-0.006489344004804560 
0.001507734547607073 
0.01040340625109609 
0.006659783024677485 
0.002769750895248955 
-0.1073373546162634 
-0.01281891524297604 
0.06331433396273560 
0.03253724624250065 
0 
0.04374555311996604 
0.02602002201706311 
0.02275065397738155 
0.03912406156045931 
0.06034941005847522 
0.1037367221775543 
-0.1009988904394144 
-4.336808689942018e-19 
0 
-0.01220886865618630 
0.03524073305736620 
0.01123008604308461 
0.02718527679860710 
-0.03419027323184183 
0.04751721810836555 
-0.02751670568196136 
0.01197046579295161 
-0.007104380485876044 
0.02343785405947752 
0.07371130552788431 
-0.02415739891352634 
0.03067299504397282 
-0.003203265071234894 
0.01588062554887952 
-0.04669447836900907 
-0.01447821612287803 
0 
0.01620586052740063 
0.05601542867757491 
0 
0 
0.01620586052740063 
0.07428225468993122 
0 
0.02199994376235679 
0.008412481052459830 
-0.01515711260135193 
0 
-0.03977744943632192 
-0.002393491215645386 
-0.06787237462800466 
-0.004821437672081133 
0.02563146825354594 
-0.04435209451693276 
0.01819490504596228 
-0.04312271157329655 
0 
0 
0 
0.06360546273977573 
0.02807584705011960 
-0.02047043155552195 
0 
0.008514678127624908 
0.03231846027642135 
-0.006203608291965804 
-0.03953757868029634 
-0.1009573347242175 
-0.005828403925588735 
-0.09394469204019610 
0.01110875565177305 
0.02908353168698520 
0.02031180439994990 
0.009092664516220969 
0 
0.1468953672883301 
-0.06603972216444277 
-0.03751840103523138 
0.1187677202634467 
0.001407580312155827 
0 
0.004084276771151478 
0 
-0.07865430713510801 
0.1902732637064287 
-0.007472413476092675 
-0.03953757868029634 
0 
-0.05179212377785134 
0.008920465072861981 
-0.05272048041329466 
0.008920465072861981 
0.008920465072861981 
0.008920465072861981 
-0.002076166120670508 
0.008920465072861981 
-0.04688524071128598 
0.02591033538783231 
0.1348188923516138 
0.06074564811222258 
0.01779236285594366 
0.008920465072861981 
-0.01728430089814326 
-0.04133612630525613 
0.02161931579285546 
0.1242923004793566 
0.01779236285594366 
0.02362370585336319 
-0.02990176212212760 
-0.03483172340883080 
-0.02023165864114523 
-0.01225693334343343 
0.008920465072861981 
0.05118494013003631 
-0.1094826151464079 
-0.03945941778012523 
0.02118433001877451 
-0.01225693334343343 
0.008920465072861981 
0.001882823370216047 
0.1440629158057228 
-0.05360403854493196 
0.03550021103350929 
-0.4530692958413808 
-0.04675120313374207 
-0.3456065497819139 
-0.09499224537223319 
-0.04550833535379822 
0.2067582134700960 
-0.03582687734279989 
0 
0.0003235486297539457 
-0.01215457138461515 
-0.08879178815252799 
0.01370834081545145 
0.01010353376373844 
0.0003235486297539449 
-0.02936839914478301 
-0.02155903276199090 
-0.1142134869733900 
0.02935916032735954 
0.007393914149489089 
-0.008842915378362537 
-0.008842915378362537 
-0.008842915378362537 
0.001825571767225424 
-0.004929336691341704 
-0.3323046386882547 
-0.07733418417873474 
0.01033726067676685 
0.01380614025203932 
-0.004929336691341704 
-0.1995523627018922 
-0.07106074793522278 
-0.008842915378362537 
0.04217368692340921 
-0.004929336691341704 
-0.2620212275515692 
0.03404211234403231 
0.01598002027547131 
0.03125128219900292 
-0.008842915378362537 
-0.1267635176202898 
-0.004418200687233857 
-0.1829055924852648 
-0.008842915378362537 
0.07283775400540912 
-0.5074272089254201 
0.2012851960225510 
-0.06347704451443280 
-0.2513966700534079 
-0.03207030658865988 
0 
0 
0.01921145483096784 
0 
0.06483678424987860 
0 
0.01949109804123590 
0 
-0.1322096822335228 
-0.001616777051625567 
0 
0.03828536822265693 
0 
0.03696057796166120 
0.1060326752331903 
-0.001616777051625566 
0 
0.08099326761373447 
0.007897574831274994 
0.03722709915440190 
-3.252606517456513e-19 
-0.03652293193247817 
0.02451911250628073 
8.673617379884035e-19 
-0.001806295771756543 
-0.002330175200009480 
-0.01957563380515717 
0.01264509088308709 
-0.001806295771756547 
-0.07318709442967801 
0.02463781511685746 
-0.01957563380515716 
0.04888915807342188 
0.04458792209016593 
0.01942877470816107 
0.1701203727720266 
0.04181271012830784 
0.1522260807291276 
0 
-0.08066755874166201 
0.02247422065628837 
0.01614555043823878 
0 
0 
0 
0.05798315462044817 
0.01781926385048913 
-0.1227300325853511 
0.02715058835182991 
0.006911980146718770 
0 
-0.0003005157818632889 
0.01281630050562225 
0.003138221805355495 
-0.03702554437520472 
-0.03403399025448346 
-0.02894423275321847 
0.03342205847900797 
-0.007346714555772302 
-0.05126299385265920 
0.04575497232037325 
0.001265475228425858 
0.01212999054685695 
0.01961129302173643 
0.01941000355331692 
-0.07632845228065036 
-0.03459531390702900 
0.08543384718716332 
0.01679474715035729 
0.006494859632680153 
0.04106425859932820 
-0.05399424047430987 
0.03456939896664808 
0.01208877485415415 
0.008859087149761600 
0.02651202064743190 
0.04674390735150888 
0.03314296414013694 
0 
0.01576245098125264 
0.02178842788531549 
-0.01606724099336518 
0 
0.004751967722268890 
0.002524650090986872 
0.02288883621082985 
0.04072204381582581 
-0.03774765332986453 
-0.01024431344872955 
0.05719456570404504 
0.06831083969533545 
-0.1134460848239199 
-0.1927745092817618 
0.03190495691974207 
0.01788884571784445 
-0.2507504060067429 
0.0006758988914139937 
0.06272217044700133 
0.02984620630048591 
0.002327227484943689 
0.07984372080631520 
-0.07101349615700012 
0.01666841394228448 
0.05081456479446572 
-0.2031129479630474 
0.002327227484943686 
-0.03979982238043407 
0.1154357760006322 
0.03633411710978698 
0.01508605583598455 
-0.01395402891975760 
0.09146016240075629 
0.02378408080001055 
0.03126426853263913 
0.02920960686235633 
0.05592299246963017 
-0.05878789551909365 
-0.1206223067093001 
0.01965834330998401 
0.02925808627522275 
0.02404924543471766 
0.03796719814343061 
-0.06352157565436477 
0.06557276408793000 
-0.01074529506284085 
0.1970856723227251 
0.008931497087966962 
-0.03010162061622156 
-0.05406270436164616 
0.1738504101565672 
0.1049720152574269 
0.1621608577676308 
-0.06769137103874140 
0.1542709291131025 
-0.02065854640741157 
-0.1059004262634208 
-0.1231519580846946 
-0.02611345921675580 
0.02613149180385597 
-0.06969041116972256 
-0.4090244723762321 
-0.02323481102534367 
-0.02323481102534367 
0.08087493945237163 
-0.008430202090422355 
0.1667342812008679 
-0.3118379368388190 
0.04592719489948893 
-0.02323481102534367 
0.04782558352297420 
0.03806502447066070 
-0.3027185884424660 
0.05504984587811257 
-0.02323481102534367 
0.05416039799370247 
0.04808637233122645 
-0.07011272669403112 
-0.2386275070123092 
0.02085281583844839 
-0.006161800730072319 
-0.4748343246684039 
0.03563476197736756 
-0.4473975680023080 
0.05863608934414645 
0.09174424018897559 
0.002940854556251234 
0 
0 
-0.09823532818526653 
0 
0.08328558363198472 
-0.06281391033020362 
0.04551917867131049 
0 
0.01580832701978924 
0.1347843245804189 
-0.02464327799126006 
0.06725230083259090 
0.006548310151592390 
0.03400964701410062 
0.005830716805981907 
-0.007645194417535203 
0.008576477970488345 
0.003092629601868716 
0 
0.08111110166776266 
0.03982153201907829 
0.02086096836003861 
0.003092629601868716 
0 
0.1207892416192260 
0.01320103161373111 
0.003524635069654773 
-0.03041287341654641 
0.09661918184446538 
0.009907990109970692 
-0.05397139245497266 
0.1112489858279102 
0 
0 
0.07395578374297916 
-0.02870974377919117 
-0.003272839481002422 
0.009006097482446306 
0.03964563419368822 
0.02302105392079138 
-0.02108833867105106 
0 
-0.01148922247281751 
-0.006319337892933032 
0 
0.02345193684463447 
0.008095974049086425 
0.03945945192888853 
-0.01661591373786974 
-0.04911304138167305 
0.04566312382054852 
0.1041208423836805 
0.01526204370886294 
0 
0.001875039047765583 
0.006497316909454105 
0.06097355555368757 
0.06097355555368757 
-0.1075448303001158 
-0.01406077793231184 
0.02942366870042594 
0 
0.003388179732382139 
0.04825489538673129 
0.04351099728126805 
-0.08411261827073355 
0.02004788969838524 
0.08444171090381744 
0.008179448408963652 
-0.005487998559041477 
0.02441319393322736 
0 
0 
0.04437122317465717 
-0.01780106538780185 
-0.03358022184753359 
0 
0.01501881067120855 
0.002656680117578104 
0.08345315514096660 
0 
0 
-0.01704597903941751 
-0.02216040109011596 
-0.005409564137400512 
0.1842527379191866 
0.06178649453384220 
0.01777172612041059 
0.02479445450575444 
0 
0.03904700649428104 
-0.0008588859351528371 
0.04008082137951836 
0 
0.05183326517960853 
-0.009640097992145009 
-0.05614322572815499 
-0.03003471048001501 
0 
0.1443010747624438 
0.02573093985563583 
-0.01318753708443666 
-0.1156306409241483 
0.001480029170967079 
-0.01258281960684324 
0.06423680207832401 
-0.06139443043810231 
-0.1245250293779661 
0.04624280112384060 
0.04464887179321332 
0.02486456482073467 
0 
0.05117410797715367 
0.006930754772500013 
0 
-0.04358854640284198 
-0.01408243010465821 
0.04056104728067584 
0 
-0.007037090224635586 
-0.04509242477497991 
0.004655637539235151 
-0.1674478650245531 
0.004276733071993488 
0 
0.04807721352453071 
0.01247357790930494 
-0.06664437306071642 
0.006562676507516468 
0.06052562254730345 
-0.1217363183541630 
0 
-0.03195436377394853 
0.08692209059348335 
0 
0.001480029170967079 
0.004110277513411998 
0.03865805767857928 
0.03375903575001841 
0.01910855227342066 
0.003020103168863998 
0 
-0.04324230505478392 
0.01910855227342066 
0.003020103168863998 
0.03796425472471979 
0.07693862513163947 
0.02680088428157943 
0.03388072549783720 
0 
0.02680088428157943 
0.3897846135062846 
0.05260139472981084 
0.007692332008158776 
0.04247886889146545 
-0.07963056531629435 
0.01827283555633196 
0 
-0.04095519233206125 
0.04495844375605913 
-0.03929537673908278 
0 
0.0006969162488897991 
-0.03929537673908278 
0.003730268888852975 
-0.02652035152981803 
0.007494511996640290 
-0.2626490056043201 
0.04967419481509746 
0 
0.0008490453946064461 
0.01430411360131073 
0 
0 
-0.01551085184744575 
0.05090943266618092 
0 
0.008286589623734901 
0 
-0.01281495284301151 
0.09757857720817910 
0 
-0.03691646850143063 
0.01178141634916319 
-0.01177513073215637 
0 
-0.005504460150912872 
0.01178141634916319 
0.001001963601314816 
0.009315453478718313 
0.01692928002067718 
0.005491647614361610 
0 
0.01885096445111406 
0 
0.03065608393304864 
0 
0.008688391440048172 
-0.05484336897122788 
0 
0.002090367335446544 
0.02419715112671633 
0.01553958309545663 
0.03051887084744320 
0.01672308223145996 
0.04536693400137001 
0.03406144121984404 
0.03127261938437037 
0.08014525157134814 
0 
0 
-0.1018012491220101 
-0.05840910302717255 
-0.03515462152370770 
-0.1524088610805252 
0.03318992795174589 
0.05139744543659882 
0 
0.03052330590570300 
-0.04984184488082695 
-0.01944707944779929 
0 
0.03702022535229926 
-0.03950584994195457 
0 
0.006286724549836636 
0.009001168889549624 
0.006466861214403949 
-0.05793175132933301 
0.06261006904924854 
0 
0.01525689032258210 
0.01125725536365634 
0.07141276833387245 
0.003939860909270066 
0.08790708298944364 
0.003939860909270066 
0.01135126395257846 
-0.03032348091652512 
-0.1763670237451799 
0.01285111578541541 
0.02166671682370929 
-0.02841438218511614 
0.03782812609799348 
-0.05986911973834589 
-0.02813567557741030 
-0.1047781542907123 
0 
-0.03778697655247511 
-0.08293942153640206 
0.03655238417654980 
-0.08798409422038220 
0 
-0.007271160928304755 
0.03184173905094077 
0 
0.06517955187975491 
0.07545255226026377 
0 
0.09320673170901667 
0.04432767758154232 
0.04432767758154230 
0.01340047976851411 
-0.06517958483627645 
-0.03965877879672437 
-0.03004929619937709 
-0.06242636253354528 
0.01824558489042261 
0.1688222357709636 
-0.01091114587491202 
0.08380941881865409 
0.05121648233654052 
-0.07277094064908525 
-0.09423139769691484 
0.09870133760868935 
0.0003035513815093687 
0 
0.05354147994559348 
-0.03537676789751012 
0.01416680212549634 
-0.008232704996379547 
0.03081296274388215 
0.03081296274388215 
0.03081296274388215 
-0.08157788067698733 
-0.09820255308828191 
0.003540187291342731 
0.006296833662380399 
0 
1.363080689199834e-05 
0.06059538612920944 
0.01612033005065558 
0 
1.363080689199986e-05 
-0.01571535645197799 
0.06146594660303337 
0 
0.01040557965587937 
0.004605250755578341 
-0.01617206498571808 
-0.09017579286623759 
0.09264287021787833 
0.06056555769653567 
0.07908153661133910 
0 
-0.001616777051625567 
-0.03456169389427831 
-0.001616777051625567 
0.004530167844508196 
0.06056555769653564 
-0.007132230422265545 
-0.01810329081433977 
0.03680878199419216 
-0.1018200372735980 
0 
0 
-0.1039807268561007 
-0.03985526705698367 
0.003639263121095010 
0 
0.003794908810029184 
-0.06115015706741392 
0 
0.02328342094393341 
0.004720675655157840 
0 
0 
0.01751344580989732 
0.004530167844508196 
-0.07408872605779121 
0.004530167844508196 
0.1029617811425130 
0.005876555826094938 
0.04460223344455065 
-0.005060294854880862 
-0.01460477622066599 
0.004530167844508196 
0.004530167844508196 
0.004530167844508196 
0 
0 
0 
0.005897898005943937 
0.008736076606781874 
0.006218972371341067 
0.03544460665398566 
0.008736076606781877 
-6.505213034913027e-19 
0.006218972371341067 
0.03407880048982411 
0.03563954222836134 
0.02403823622183020 
-0.06990710238078988 
-0.05629338777666938 
0.1770855977824221 
-0.006064878190627632 
0.01781926385048913 
0.01781926385048913 
0.02807584705011960 
-0.07952755959629702 
-0.01162939076084949 
0.01781926385048913 
-0.09182219672066667 
0.01781926385048913 
-0.01964567882434410 
-0.001295649763173712 
0.01781926385048913 
-0.1109164643184939 
-0.1355032829544662 
0.002045883900264004 
0.008119906213754769 
0.002045883900264004 
0.02049350737969984 
0.002045883900264004 
0.06242900913099603 
0.01313625476042473 
0.1816846145155572 
-0.04661033561443952 
0.007688661898384103 
0.1656965035634795 
-0.04749382154570449 
0 
0 
0.007271277671980601 
0.007271277671980601 
4.336808689942018e-19 
-0.0004360599977712924 
-0.05276915232974824 
0.01064379234109434 
-0.02966326804267684 
0.06159696297251007 
-0.1248290884499290 
0.01939090694600668 
0.03359044907420143 
-0.05536267455320822 
-0.02300944868179678 
0.02289474417183450 
0.01005793117183516 
0 
0.02632856573916208 
0.007761313136615705 
0 
0.02529130642532986 
0.007761313136615705 
4.336808689942018e-19 
0.1116096884334508 
-0.01022452879047753 
0.007761313136615705 
0.1295154452476983 
0.005846614759873012 
0.03963533631815682 
0.009103800435165675 
0 
0.08197993216914878 
0 
0 
0.01147086092190813 
0 
0 
-0.03979381085572155 
0.001159629413999213 
0.008286589623734898 
-0.1497882885425107 
0.01381511468188705 
1.572093150103981e-18 
-0.004231776909189814 
0.04000922644961193 
-0.01573532286302454 
0.01432232646869635 
0 
0.004516188187897289 
0.1962181529881190 
0 
0 
0.07371127337452797 
-0.02531373201541593 
0.01178141634916319 
0.03733862672493207 
0.03733862672493206 
0.1915872874815302 
0.06257102568814255 
0.06189670248820321 
0.03294864961587214 
0 
-0.05641810228301969 
-0.02496769497014295 
-0.008728650791581048 
-0.05635059492694187 
-0.04959577073772131 
-0.07974793679438735 
0.01800606581770458 
-0.04959577073772131 
-0.004015019416841878 
-0.03178662975325058 
-0.007472346733674438 
0.01792233759590493 
7.047314121155779e-19 
0.04933340079139787 
-0.3040996702577762 
0.001183499136003339 
0.04339214609483751 
0.01679406007033001 
0.003778223770934073 
0.003778223770934073 
0.003778223770934075 
0.09495434132727679 
-0.0008256544074421201 
0.05721132930487374 
0.02829901829622239 
0.006958863744777611 
0 
-0.05840120639272974 
0.05523933107307059 
0 
-0.08327321310151012 
0.02761899709698031 
-0.007896615336695880 
0.005959626522856389 
0.009721457219301007 
-0.04224173573184208 
-0.05515047501035914 
-0.04534020589079068 
0.01294641583041606 
0.04645822349442735 
-0.02381737977655078 
0.03737542767994326 
0.02825981623033749 
0.003416485406567703 
-0.02056410677301022 
0.02178548424668943 
0.03741467103836725 
-0.01778311116613814 
-0.02026612515722116 
0.003416485406567703 
0.005056038752487963 
0.01644475693208868 
-0.02902578042985425 
0.003416485406567703 
-0.04921020513350208 
0.004606603134390519 
0.003416485406567703 
-0.04532879232217887 
0.003416485406567703 
0.004606603134390519 
0.05030653279601875 
-0.06884108421828945 
-0.05547412346782222 
0.01100388633461171 
0.007855642736780724 
0.01342218703614335 
-0.07745751382854817 
0.007340991287885321 
0.01145046124500474 
-0.006711564352348241 
0.05798098554634562 
0 
2.168404344971009e-19 
0 
0 
0 
0.06145358798031238 
0 
0 
0.02839910719574335 
0.07047915279011706 
0.007153675974429508 
-0.04333983180083905 
0 
0.002049359387152123 
0.1005706115787519 
0 
0.02054586299166855 
0.002022988000746258 
-0.01546094600172034 
0 
-0.05441376015966319 
0.003496425776793138 
0.01895760924667440 
0 
0.001750037235366436 
-0.07590679777423268 
0.01991888097211245 
0.01277502520926471 
0.007408760215923432 
0.04393476519152612 
-0.1682109900849242 
0.1068769699746662 
-0.06861359005512828 
0.02655307727886386 
0.04419823781338003 
-0.08046826734891166 
-0.08593904560063054 
-0.02728030079499691 
-0.07175296078695574 
-0.02728030079499691 
-7.852163753209440e-05 
0.004817870434387963 
-0.008016978082416356 
-0.02728030079499691 
-0.01961598723924409 
0.004651913053752923 
-0.02728030079499691 
-0.01684862899584433 
0.08613397599087702 
0.007318263287006413 
0.02342260822237493 
-0.02007001827582654 
-0.01645326705888499 
-0.01684862899584433 
0.02028340277634958 
0.1449880017944220 
-0.01834297430862893 
0.01231170503871468 
0.002868509206824551 
0.01649681915656369 
-0.1631384777521627 
0.09736903526902652 
0.05489545148589828 
-0.1024682361912020 
4.012413775084938e-05 
0.05489545148589828 
0.05896863548042838 
0.1170333769885002 
0.05489545148589825 
0.01445254615389954 
0.05896863548042838 
0.01445254615389954 
0.04324694959760662 
-0.08238171977502386 
-0.02458972899515162 
-0.1438656469671087 
0.07847053017679889 
0.03212636090316210 
0 
0.01761579833181879 
0.005886434042385847 
0.05645525491789439 
0.05217503886509233 
0.009500444098943281 
-0.03433685974942069 
0.006217023960884664 
0.02185173922419794 
0.008872633311545790 
0.01314653704793749 
0.05401065008702754 
0.02205176458861153 
-0.06307859969849514 
0.08054409940699986 
0.005164524352004797 
0.001244281746184225 
0.04991066211488827 
0.08754102110049353 
0 
-0.004120259756928587 
-0.006208369722457305 
-0.01092768183443328 
-0.005070665609430479 
-0.008488577159622349 
-0.01864509017556922 
0.02769920347238495 
0.01587168390638222 
-0.02648363395874744 
0.004777529866969248 
-0.05069513472603851 
0.04537108414354966 
-0.02648363395874744 
0.1665132599903481 
0.003685835305404341 
-0.01726443040835877 
0.003919502803246307 
0.03855570959301850 
-0.06587524211562183 
0.03207275733879453 
0.02242062809371545 
-0.008707386629828309 
0.02837364292823634 
0.02493953817328679 
0 
0.04564563422519774 
-0.08770855987697480 
-0.05630076695060003 
-0.01059663357249423 
-0.008734935028554517 
-0.08770855987697480 
0.007604084044445393 
-0.05458788710300361 
0.01756951793014264 
0.04261047706209135 
-0.02895882420316893 
0.01301128723071249 
0.05990645009524451 
-0.07462992521897226 
0.05695049978397995 
0 
0.08207152969865950 
-0.06541138682969846 
-0.009097441575519210 
0.06594051403557473 
0.01307969115145970 
-0.03026314404036874 
0 
0 
0.004265411680552149 
0 
-0.06158542382079786 
4.336808689942018e-19 
-0.006802690304850125 
-0.04110440094275999 
0.006049403788266461 
0.03629275507767622 
-0.09901814743366194 
0.06828053580456188 
0 
0 
-0.04184355834629740 
0.02164401667693984 
-0.01118402443943910 
-0.07244443893493414 
-0.06411361218087410 
0.004264640329259984 
0.01513811265093994 
-0.04567855630553895 
0 
0.03722378527285880 
-0.09833080983403827 
0.07041148794803390 
-0.06878768331175728 
-0.1072761825959969 
0.05960709053659280 
0.009713976710543415 
0.03603025868985264 
0.1042435143924960 
-0.03869023210071752 
-0.05576536027003227 
0.04727808436719361 
0 
0.004661803267078425 
0.02403826060313302 
-0.04973267511872725 
0.1150520918898762 
-0.06941591315327525 
0.02204433815125565 
0.05304533829659461 
0.03912981281943476 
0.02204433815125565 
0.04512057854347682 
0.008685483501139154 
0.02441461795715563 
0.07950549005692228 
0.04367140541127154 
-0.009335814598383809 
0.1101358776599141 
0.07508322610941189 
-0.09098790792472050 
0.04983864806553647 
0.1434066901720010 
0.05835364646897745 
0.002944066008832475 
0.01750299821257616 
-0.02042525438354190 
-0.006611526076874544 
-0.05334771323806224 
0 
0.02631327257287309 
0.02265241994582491 
-0.02363902466840579 
0.03804356743584464 
0.07749603164501911 
0.07237234572969682 
0.05010853216040678 
0.03685212827567582 
0.07825565099517204 
0.1647525882389945 
-0.1762903020696338 
0.1120898177364701 
-0.05296761448968831 
-0.01353848090321418 
-0.04600799926591936 
-0.04938439424867151 
0.06841047072122534 
-0.1007588712042276 
0 
0.07049631027615373 
0.005655195269361839 
8.673617379884035e-19 
-0.07828895597063684 
0.03688391468516594 
0.06457649690024679 
-0.05011777630998477 
0.03478275440376472 
0.03996139533117024 
-0.06705945298565220 
-0.08733414661563427 
0.1478733594104055 
0.04549127199050875 
0.08981104323066530 
-0.03466795172181226 
-0.06389152737808418 
0 
-0.008377761589259820 
-0.001852321684131347 
-0.1035510217308176 
0.01244222179365181 
-0.05107576604501181 
0.06602361935195603 
-0.07369935708109683 
0.04717992927998602 
0.006363509875093109 
-0.002460350280152633 
-0.06207230483686959 
0.08410332248981951 
0 
0.02601762349669059 
0.1408798725946456 
0 
0.03756630372593438 
-0.02447398181138291 
0 
0.09011034324225170 
-0.01466892405998909 
0.007874208780362041 
0.02750935770345937 
0.06665520150141813 
0.03119402189420873 
0.1491629515528390 
0.1079963327808541 
-0.04813609775038159 
0.05965390874534149 
-0.03842653639104394 
0 
0.02367864754798988 
-0.02176239083647849 
-0.05412314025748616 
0 
0.05780770753108680 
-0.01337901040067104 
0.1019762903862903 
0.01528058220740003 
0.006229039369338585 
0.07054227351083552 
-0.09834859260303712 
0.02869200311878654 
-0.06381383902003498 
-0.1074535993552539 
0.02118517653039455 
-0.08003837891339002 
0.006229039369338585 
0.04390936203448839 
0.05528438887448765 
0.1578889930649452 
-0.08546347971597637 
0 
0 
-0.07164154892987806 
0.05481376852577511 
-0.05718477885630006 
-0.05204577986181973 
-0.05176541930782033 
0.04570417389235869 
0.04182798658274294 
-0.01853400821488827 
0 
0.01108673543366142 
-0.02509279869080111 
0 
0.04207988283907839 
0.02137485872037389 
-0.04038207186840894 
0.04207988283907839 
-0.08645407629603505 
0.04207988283907839 
-0.06925014781355542 
-0.003321870658387947 
0.05953089275066597 
0.1211751822687860 
0.003346624700602651 
0.003346624700602651 
0.003346624700602652 
-0.03868132853775955 
-0.03650699653033664 
0 
0.02495444077911926 
-0.06131260064337790 
-0.1155494251770205 
0.07288479268935813 
-0.04289330441361313 
0 
-0.04455836724101640 
0.01354321873316960 
0 
-0.02248387600225271 
0.03077768454043240 
0 
0.05345940430209319 
0 
-0.1124871654702353 
0 
0.03905034354022708 
0.07627789319512120 
0 
-0.03632301728491956 
-0.02861412007612950 
0 
-6.505213034913027e-19 
-0.01057658959923084 
0.1722876127892861 
0.07613160133442840 
-0.007848874076133192 
0 
-6.505213034913027e-19 
-0.05724972825312293 
0.1338293827711687 
-0.02766687809606621 
-0.05238703185087397 
0.1288214263104264 
0 
-0.05515843668517659 
0.04678383272403930 
-0.08635999872554785 
0 
0.06409769333588512 
-0.02974663484241814 
0 
0.008869105134652360 
0 
-0.01453156672606105 
0 
0.005521714622564808 
0.07057252484007823 
2.710505431213761e-20 
0.02838854709618036 
0.05343506707884252 
-0.02445523955190712 
-0.01099783307904358 
0.1552938914554450 
-0.05118702637791001 
0.1164250144159643 
0.1016109453328889 
0.07899931297797001 
-0.05794712633098585 
-0.03049665782223650 
0.08769070836125259 
0.08769070836125259 
0 
2.710505431213761e-20 
-0.001342281335643873 
0 
2.710505431213761e-20 
0.001959677456622610 
0.007115630292871410 
0.004446865754734933 
0.003598115849618948 
-0.003883426506535167 
-0.005913429587639551 
0.07320700591874567 
0.004446865754734933 
0.02358800240638396 
0.004067512551677525 
-0.005359399738262089 
0.06274779140906901 
0 
0.05922185867389801 
0 
0.007746858914161756 
0.01225131088761026 
0 
0.01475531519400483 
0 
-0.1966277108082704 
0 
0.01117576699407934 
0 
0.02135094450201549 
0.02160781607851660 
-4.336808689942018e-19 
0.009196102470997120 
0.05974492277723717 
0.08762907565673536 
-4.336808689942018e-19 
0.03959093211566582 
0 
0.005944888880363999 
0.02535071176972282 
0.06503800172380242 
-0.01215133352208399 
-0.09038458630412415 
0 
0.1131853753040052 
0.03886862776035131 
-0.009344341264961465 
0.04270839037370162 
0.02890184130369603 
0 
-0.02830571440839178 
0 
0.007807388446104091 
-0.01301673408614000 
-0.04702787285826972 
0.02796633147460296 
-0.02830571440839178 
0 
0.02644240060844622 
0.01772186375315250 
-0.03576064365194284 
0 
-2.168404344971009e-19 
0.05061449834050293 
-0.1494123107174079 
-0.008438337469172925 
0.03937754797767125 
-0.05766190880485902 
0.001317934131380598 
0.01390820818575070 
0 
0.01277597203127967 
0.005080999415619887 
0.08468721028526058 
0 
-0.07054981563213791 
0.1194439738781400 
-0.05606385856791879 
0.04026357451687803 
0.02644182177217944 
-0.01810737206478031 
0.04548466499134870 
0 
-3.628472114734885e-05 
0.05801137944904203 
0.02117803759849027 
-0.001176176674546716 
-0.04440505922895826 
-0.05136525447832559 
-0.04405363206923052 
0.01437432592450074 
-0.01299030253333987 
-0.03561979873993229 
-0.004386932155347871 
-0.01863173012452509 
-0.03420296567603545 
-0.1092404821362691 
0.01378613064374060 
-0.01796823003027075 
0.1408904384073810 
-0.06562569448913660 
0.06731599373486520 
0 
0.08311112706849759 
-0.07490448460707412 
-0.07936844010771363 
0.03251451779343375 
0.02912157322820815 
0.01862941131413656 
-0.2998020394903150 
0.07291987136725098 
0.03586079157928464 
0.1741775774912628 
-0.09857818631955870 
-0.07826809869373867 
-0.06774483055941892 
0.03163951407929435 
-0.004041740616670976 
0.1047512261083229 
0.006924005938326975 
0.06977662505501306 
-0.06423058377902480 
0.04928545064431813 
0.1046276370926363 
0.007625008205107966 
0.04238539034767908 
0.03712335257456462 
0.05631946996114471 
0.1388731691444928 
-0.04845333060541650 
-0.03007172612977225 
-0.02744276839261246 
0.06652129156029468 
-0.1063066106828334 
0.02140117278316455 
0.08824075812223334 
-0.07315232736698193 
0.06703978135012860 
0.0007010022667809888 
0.3035618822273632 
0.04809730515448107 
0.02140117278316455 
-0.04572697325663170 
0.04814489408758843 
-0.1220163160723028 
0.02140117278316454 
0.02140117278316454 
0.08757474762546757 
-0.1409983512967693 
-0.04075348062859215 
0.03041364440998666 
-0.02687000044544384 
-0.04075348062859217 
0.02140117278316454 
0.09664788323412597 
0.005451971952445025 
0.03069157237127804 
-0.1884056807139970 
-0.04406999904807665 
0.02140117278316455 
0.007503780422035286 
0.06495855891305981 
0 
0.02029229244215227 
-0.01369820285173260 
0.04608158915821114 
0 
0.02029229244215227 
0.02862508284591032 
0 
-0.03785003796028008 
0.02029229244215227 
0 
0.1128691038269472 
-0.01979725522429370 
0.02569981044952059 
-0.05362836476199626 
0.003694642707897225 
0.1049486693811416 
-0.04664188346014606 
0 
0 
-0.2030434023594714 
0.01875831402020353 
-0.05100427160892911 
0.009911751989833142 
0.01875831402020353 
-0.05136564507654347 
0.01264754763618907 
0.02569981044952059 
0.01875831402020353 
0.007123864623555108 
0.007402302343266370 
-0.07039888593996660 
0.06892473809215074 
-0.2795969789415569 
0.003694642707897226 
-0.007628741284494226 
0.02029229244215227 
0.003694642707897227 
0.02241390165331083 
0.003694642707897227 
0.008310881703771490 
0.003694642707897228 
-0.06593340929487670 
0.007402302343266370 
0.02029229244215227 
0.003694642707897228 
0.007402302343266370 
-0.1312351986067944 
0.04364924038666971 
-0.01979725522429370 
0.009601589083111952 
0.03584185194056559 
-0.005631156654424387 
0.02843954959729922 
0.01163038782668728 
-0.08273839089717570 
0.01554955949841331 
0.009920850883388246 
0.01554955949841331 
-0.1516891479406065 
0.02843954959729922 
0.07722714339714314 
0.02843954959729922 
0.01554955949841331 
0.008285991844332933 
0.01554955949841331 
-0.2347418973744739 
0.02843954959729922 
0.01554955949841331 
0.01554955949841331 
0.02843954959729922 
0.02843954959729922 
0.04899170089289774 
0.04899170089289774 
0.05920066068452463 
0.03344214139448445 
0.03344214139448445 
0.03344214139448445 
0.1888237479489046 
0.04097488155467273 
0.03344214139448445 
0.03344214139448445 
0.01277227867807079 
-0.3906343074599544 
0.04097488155467273 
0.04096722246005104 
0.03344214139448445 
0.03344214139448445 
-0.3479288998368126 
0.01376812825081660 
-0.03286033372433720 
0.03344214139448445 
0.04885535799658488 
0.03344214139448445 
-0.3314992195383389 
0.02833069217828450 
-0.04699450624631454 
0.03344214139448445 
-0.02390279657947909 
-0.03762189824460762 
-0.07186633826699985 
-0.03947666374250942 
-0.07215883654111280 
-0.06438047523255057 
-0.1395600041432523 
-0.03947666374250942 
-0.05096809467312980 
-0.09398507138290063 
-0.07607402574224495 
-0.05096809467312980 
-0.1684408334224901 
-0.06519086753558753 
-0.04856435834358363 
-0.05011966155167155 
-0.04864870026324490 
-0.01220655980644081 
-0.1144981444016977 
-0.1103739529094576 
-0.09461986698954206 
-0.02434628285139433 
-0.07856257706751138 
-0.1152715145507227 
-0.09461986698954206 
-0.09461986698954206 
-0.07053399126500781 
-0.07526612404965452 
-0.01403934380537563 
-0.01701758834233525 
-0.02974900442630934 
0.06507558030951882 
-0.05070952166458339 
0.08037216280966801 
-0.09461986698954206 
-0.07337356894113313 
0.05649464745963218 
0.05093268569928457 
-0.01121715554466259 
0.05093268569928457 
0.05093268569928457 
-0.01121715554466259 
0.06209496447909037 
0.05093268569928457 
-0.06828770455611069 
0.08984682129273866 
-0.08026392703312181 
0.04558798961842504 
-0.06297980779368703 
0.007074808991930530 
0.08846914318933502 
-0.0008413144503385136 
0.03995454390801021 
-0.07153262092238302 
0.1660010427059899 
0.06667556693181917 
-0.06606317513562728 
0.1660010427059899 
0.001558954775573265 
-0.02736703523695419 
0.1660010427059899 
0.0007819673085082053 
0 
0.1176328254607546 
0.07038573192305748 
0.02766979707806623 
0.02487864958215777 
0.04320404024649849 
0.05258781392268860 
-0.1241504609110636 
-0.04810108308215817 
-0.01937047154344921 
-0.05814462587500842 
0 
0.05165794166141045 
-0.1285976468306379 
-0.02308839520493433 
0 
0.09560917764906468 
0.08436885926624559 
0.04386324561226983 
-0.004387052436537503 
0.002204098601513848 
-0.07764435996572551 
-0.07846498041396115 
-0.03062426947553220 
0.05830566752671224 
-0.01492134896216735 
0.05866943803362124 
-0.1211159758228163 
0.1067611026824714 
-0.005327877619327319 
0.01727240573116814 
-0.07372260030480443 
0 
0 
0.002147041614112411 
-0.04904028620495799 
0.3036302471799449 
-0.1040333984898074 
0.01101043620982605 
0.009375067311896839 
-0.09722918897434674 
0.03611708200970079 
-0.04392082070597714 
0.002147041614112411 
0.05840483137537733 
0.04127741352969993 
0.002406813212925207 
0.002147041614112411 
-0.03865838422478528 
0.05787661339394377 
-0.09320500565908947 
0.002147041614112411 
0.01157884842014733 
0.1081396992479493 
0.05724001624258894 
-0.01961029209990183 
-0.03838057128255128 
-0.01225070618854099 
-0.01803473724127462 
-0.09444849544588932 
-0.003314032070455200 
-0.009341654970570700 
-0.04905941868387710 
-0.01173405181486400 
-0.05563649494147705 
-0.04905941868387710 
-0.01225070618854099 
-0.01803473724127462 
-0.04905941868387709 
0.002599397030496731 
-0.01225070618854099 
-0.01803473724127462 
0.02156177395744282 
0.01211487876899424 
0.03732735978583915 
0.2366002287934692 
0.004544063547342489 
0.002128324023506838 
-0.1868657144827613 
-0.1776152895261695 
0.01062618603924393 
-0.08295142608191883 
0.06135441827856653 
0.01591436286407662 
0.01566914169737151 
-0.08295142608191883 
0.08148276759184506 
0.09422692005888225 
-0.07892401350497134 
0.02603837553799313 
-0.1014459597742641 
-0.1392479477634751 
0.01830638691754914 
-0.001463183282854130 
-0.1254401495566738 
0.1014181914517465 
0.2431882030627792 
0.03776320418456816 
-0.04515852558046418 
-0.2056389747091618 
-0.02899324192249949 
0.02917365599256433 
0.06337115616545441 
0.02697335449559023 
-0.03170682246938558 
0.02141857596674803 
0.02358937124037787 
0 
-0.03879549693931150 
0 
0.06127105658800337 
0 
0 
0 
-0.02835357026333757 
0.03849905533990889 
0.03307101583889709 
-0.01561078884907034 
0.01119408334668107 
-0.1820363073344243 
0.05432435062548800 
-0.01732347418480833 
-0.02681365166682638 
0.03889019215115724 
0.01344522018822861 
0.06435426096305281 
-0.2057990209643346 
0.1107098401284751 
0.07042281836089448 
0.01111561982254378 
-0.1870105039881567 
-0.02431343514338524 
0.01119408334668108 
-0.08962462685134098 
0.01652447745610272 
-0.1384396851795210 
0.01119408334668107 
0.04129708861739659 
-0.04481145336431827 
-0.07076526065951325 
-0.05956885680673132 
-0.02897218637360195 
-0.02152669892591442 
0.09592568329242117 
-0.07738987475578128 
-0.2264036503445460 
-0.06133593082042096 
-0.09945024659868412 
-0.06133593082042096 
-0.01901597583076548 
-0.06577295971616680 
-0.02865438334974152 
-0.06493335488184986 
-0.03259125919207455 
-0.09143901725572032 
-0.02662863457212278 
-0.05853200278903068 
0.05141932994486875 
-0.02380906192099498 
-0.02767741128286051 
0.0007434602494744969 
-0.01880373328364133 
-0.07497625039245344 
0.1876833310856415 
0.03914432514404409 
0.03914432514404409 
0.04738863884357306 
0.02927093739152568 
-0.04290779375034266 
0.03221433660851643 
0.03221433660851643 
0.2239429234450721 
0.03221433660851643 
0.01248807288078536 
0.03221433660851643 
0.06773217536055365 
0.1266025176678898 
0.09727584562864888 
0.05916510681325172 
0.02635290864761524 
0.02635290864761523 
0.04738879847224670 
-0.04811650157692123 
-0.1211237908858701 
-0.06259390817746535 
-0.07318568062168888 
-0.04817893998792164 
-0.003251749129980846 
0.1339810519508695 
0.06296303975232499 
0.1193684465421263 
0.03975094978763900 
0.05452988433628461 
0.1355849921245140 
0.04703777906420426 
0.04793811026418125 
0.06772997326232377 
0.07357135207369747 
-0.1171225107140286 
-0.06542553180047254 
-0.02949683814425775 
-0.1176153150770348 
0.03762476066411940 
0.02326416958950766 
-0.2913639856389103 
-0.2185824628024610 
-0.01552899175416282 
-0.1058540847248859 
-0.08656915190237316 
0.05278681486815519 
-0.03412799593080124 
-0.08960662652534881 
-0.02740041172333938 
-0.1054706754773352 
-0.03933874830603459 
0.01046147039141433 
0.009395532376557277 
-0.04945196108798119 
0.07058989531902958 
-0.008449821602366233 
-0.06270947308375714 
-0.03875931006119619 
0.07585023998314960 
-0.001035896059414595 
0.03182447073789969 
0.1662599999314393 
0.01131837439959303 
-0.02410346080933292 
0.01720745502819019 
0.1814777701468689 
0.04941435204961725 
0.01720745502819019 
0.006181157892517004 
0.09392235901992090 
-0.02661424857772462 
0.07944516995307911 
0.1080972022983699 
-0.01849904380970852 
0.06710588769578188 
0.02428650069925126 
0.01332219149389576 
-0.03400334764147528 
0.05811380786628281 
0.08293003274368642 
0.03989618607631327 
0.06288327456146504 
0.005188501585472370 
0.1058516706740145 
0.06206831489011001 
0.03084607350167581 
0.002966381121783344 
0.07769290200081765 
0.008029721351435383 
0.05723461050339083 
0.03311683091797255 
0.03311683091797255 
0.03311683091797255 
0.01593486696275463 
0.01685769695295615 
-0.02166618606044039 
0.005557096184542431 
-0.002323288155769894 
-0.02718495335675707 
-0.04630251130811607 
-0.07164117038764417 
-0.01018161998918850 
-0.0004348767038922815 
0.01883965212676572 
0.06946264327924939 
-0.01596829327519447 
-0.05478301697841294 
-0.04311982031951168 
-0.05478301697841294 
-0.05478301697841294 
-0.09894095822236725 
-0.07989005091340817 
-0.08051394365666936 
-0.02813323029495097 
-0.001830246564040236 
0.05010997299878267 
0.06375319410745561 
-0.03041599202284302 
-0.03041599202284302 
-0.03883379522484318 
-0.04961367080035287 
-0.03041599202284302 
-0.03883379522484319 
-0.03284169369495874 
0.08434427514589339 
0.1008256426391958 
0.04102790268084922 
0.04429910206119979 
0.1268062403213027 
0.003645763517742762 
0.06960784124979069 
0.06960784124979068 
0.07475564986279493 
0.003645763517742762 
0.06960784124979068 
0.07475564986279493 
0.003645763517742762 
0.1038821795659131 
-0.01353620043747516 
-0.07717475286320730 
-0.1212249230064141 
-0.05029688583415033 
-0.1297808293805776 
0.05211233055857904 
-0.02994043865551488 
-0.004774881680747802 
-0.01718196395521792 
0.02380783258323518 
-0.02966517408104407 
-0.004774881680747801 
0.009820078358924040 
0.04944057345313374 
-0.02611156132400417 
0.03784214962310194 
0.01611383929484825 
-0.01718196395521792 
-0.06025430537834262 
-0.06025430537834262 
0.05056800808951395 
0.1225628177720119 
0.005011054464845953 
0 
-0.01491794552005371 
0.04513280092747377 
-0.01346355039054440 
0.03297123834351150 
-0.1483363501402291 
-0.05412062288002419 
0.04576219215445496 
-0.04791849471008887 
0 
-0.01751259074340599 
0.08268074371268185 
-0.08230143408195573 
0.1145132675397559 
0.06138595792194911 
0.06909453009141049 
-0.004658868970701101 
0.06162248707963806 
0.1026921863496668 
-0.01244177257408288 
-0.08668752694920755 
-0.01243136015345610 
-0.05183164418507343 
-0.01243136015345610 
0.08385846061629118 
0.02587443661391812 
0.05214176042923795 
0.06162248707963806 
-0.01049526355424904 
0.02337288241658351 
0.05986900587730742 
0.03568788717475005 
0.03531185017848231 
0.02066391784951350 
0.07793949644156796 
0.1195730975774625 
0.01901097995006166 
0.1074115349935002 
0.07406425965372090 
0.07406425965372090 
0.06138236494154346 
0.08868543288531171 
-0.1708140724152374 
0.009082704035838822 
0.05231384972336561 
-0.01178686841871503 
0.05377095781745679 
0.08388521040271240 
0.03875240947523864 
0.03875240947523864 
-0.002406403911522042 
0.03875240947523864 
0.03875240947523864 
-0.03171719375036171 
-0.05036998576162076 
0.03979220984064112 
-0.02641921090754655 
-0.02641921090754655 
-0.02260166070714244 
-0.07538164644258605 
-0.02641921090754655 
-0.05194779360915840 
-0.01886634828664313 
0.04050784957365831 
-0.05773933399899144 
-0.05194779360915840 
-0.01886634828664313 
0.03280639842776877 
-0.04215617317261772 
-0.006716274862288145 
0.1137523248623653 
0.09681184150981005 
-0.02641921090754655 
-0.04997498432720380 
0.009791620436540686 
0 
0 
0.03340669131867521 
0 
0 
0 
0 
0 
-0.04791642483756338 
0 
0.05786826672134385 
-0.01216156258396226 
-0.01277431518682341 
-0.01216156258396226 
-0.01041860041330091 
-0.05981353156741039 
0.02651187198492909 
-0.03260928283092617 
0.04513280092747378 
0 
0 
0.007540546629081845 
0 
0 
0 
0 
0.009160476508887436 
0 
-0.07916778718089507 
-0.04624463176841136 
0 
0 
-0.02552858270161184 
0 
-0.02552858270161184 
0 
-0.05176626162280217 
0 
0 
0 
0.03786926327581115 
0.08251301410305548 
0 
0 
0.01116188187142973 
0.02035375722303336 
0 
0.01116188187142973 
-0.07857195970385565 
0.0007655584566760277 
0.05440152619136212 
0 
-0.08636862488990679 
0 
-0.08636862488990679 
0 
-0.08316405725538013 
-0.02795547536030162 
0.01506571336619236 
0 
0 
0.002730611089199520 
0 
0.01431855673071188 
0 
0.006923670018398128 
-1.084202172485504e-18 
-0.04791789511990773 
0.03566220416910233 
-0.09150482643888072 
0 
-0.002305625726261178 
0 
0 
0.05325837582628084 
-0.03083857673495229 
-5.421010862427522e-20 
0.05468738908746592 
0.001065901074376578 
0.02031358747763746 
0.03415905012615669 
-0.05748986049161309 
0.008514375298875124 
0.03285836363642850 
-0.01261037883928705 
-0.05913522616778589 
-0.01468070539459300 
-0.05542381235685991 
-0.07640791986548486 
0.005065705610590422 
0.004587868497551177 
-1.084202172485504e-19 
0 
0 
0.007773940361524085 
-0.08620299420604023 
0 
0 
0 
0.007773940361524085 
-0.07477862174159220 
0 
0.01186443164152547 
0.01031416003161294 
-0.01989520993622931 
0.02416881948526585 
0.02834147298353206 
0.06439973426343783 
0.01338155493063772 
0.02429338070457862 
0.003146832113371371 
0.02416881948526586 
-0.02067204113468413 
0.1239014678320225 
0.06576618560513034 
0.02340082361978676 
0.1507030094916593 
0.02304571421644513 
0.02304571421644513 
0.1017584701631607 
0.05674213618084351 
0.02453159164567157 
0.02304571421644513 
0.03262999354241264 
-0.03055515305524124 
0.008263321588134271 
0.02304571421644513 
-0.1224685193890780 
0.02304571421644513 
0.03262999354241264 
-0.0009303429485463329 
0.03869239137689215 
0.001269542229076167 
-0.08022753021306732 
-0.005338073859555722 
0.1020429815406378 
-0.04412348463645410 
-0.04412348463645410 
0 
0.004955701008418613 
-1.111307226797642e-18 
-2.168404344971009e-19 
0.006846725791240526 
-0.005007869148144383 
-6.505213034913027e-19 
-0.02136011789937752 
0.08522592516271174 
-0.03833251610015982 
0 
0.003045826839231793 
0.001945686564838025 
0.04056637234639716 
0 
0.03369642196439836 
0.01150285091991373 
-0.09932029462441096 
0 
0.01329697631840607 
0 
-0.05183674778567582 
0.001490340853834977 
0.02574454720775834 
0.001490340853834977 
0.04880474483312096 
0.02281015930237588 
-0.05758396632199447 
0.02554267675792414 
-0.004820645588867916 
0.08586851991293941 
0.05970582233590041 
0.07711580910196479 
-0.08710708294028822 
-0.04893804002583071 
-0.04533218156483851 
-0.02084040450880564 
0.01811387448637226 
0.02056572720263838 
-0.2215462288105394 
0.004183607230075857 
-0.004074176127404649 
0.01290747400100992 
-0.008006540404194091 
-0.01575838832035729 
0.05385692386389417 
0.05417512659656358 
0.006662361025271854 
0.02153335383373603 
0.004183607230075857 
0.006370749755677446 
0.1343752082401684 
0.03104490358647241 
0.1552000281930738 
-0.06149570709939849 
0.03648985221474772 
0.06432152795662001 
0.08804838123435540 
0.004183607230075857 
0.03374140485752591 
0.01047792703240696 
-0.01276714141482558 
0.02337671927374815 
-0.04750309614794739 
-0.05289870932392689 
-0.05213787925801253 
-0.05361215627189383 
0 
0 
-0.02477649670830223 
0 
0.02701396605865143 
0.02575220942874251 
0.07462330003488855 
-0.03726887214918014 
0.02701396605865143 
0.02575220942874250 
0.01391007206274768 
0 
0 
-0.06555089426237800 
-0.05988031531565753 
0.02110153926040527 
-0.03411238944474596 
0.04978056939191251 
0.07262329699190188 
0.03551180949078297 
0.03585408853788488 
0 
0 
0 
0 
0 
0 
0.02516065523729314 
-0.1754233771770688 
0 
-0.01807272276273561 
0.01215522057387027 
0 
0.02575220942874251 
0.02575220942874251 
0.03358893595735946 
0.07959320565289477 
0.1013195986403718 
-0.1778533608475090 
0 
0.01217511342076461 
0.002601062094323790 
0.04397842583052582 
0.02641809923345393 
-0.01894974929081847 
0 
0.06606697293511712 
0.1414108308939921 
0 
0.1737657279570965 
0.06305892383349056 
0.01936005424789906 
0.06601343871118186 
0.03968468953425298 
0 
0.004239239365826806 
0.007024317739967228 
0 
0.01166851360768612 
0.08262619586175618 
0.04169587429931948 
-0.01966369659361142 
0 
0 
0.06778676589618368 
-0.01088063371269428 
0.08726436144057301 
0.1695780914967474 
0.02225214554653945 
0 
0 
0.002912722454380089 
0 
0.02375569220057608 
0 
0.02678679282828324 
0 
0.03897242151943951 
0.02204045582827350 
0.1367021201518914 
-0.04328717931295070 
-0.07770596322139464 
-0.07009394397463486 
0.04031447156943803 
-0.07597855982317099 
0.03100522167243535 
-0.05386249013241157 
0.03378382200168859 
0.03029056415931764 
-0.06930015125401850 
-0.006119502301437579 
0.02304571421644514 
-0.08465882339891415 
-0.3528997092208756 
0 
0.05242081941562220 
0 
0.04080183625620126 
0 
-0.04451057665724335 
0.06540310643549553 
0 
-0.03942278084379108 
0.007999619348630133 
0.08571955158330297 
-0.08661224473554590 
0.07561270587723447 
0.05802821898880836 
-0.1185867408085402 
0.03961301758170400 
0.002462938030453308 
0.02760791553229677 
0.05003417436612723 
0.007999619348630131 
-0.06714146359802035 
0.007999619348630131 
0.007999619348630131 
-0.07955246766587330 
0.007999619348630131 
-0.1028621683999168 
-0.0007320978475380481 
0.007999619348630131 
0.007999619348630131 
0.01369001777711678 
-0.003874464584749160 
0 
0 
-0.003874464584749159 
0 
0.03060560865639763 
0.04188196899853953 
-0.01492492033868595 
0 
0.02173569687076566 
0.01077929632495753 
0.09965201233461865 
0.01378571393244951 
0 
0.05193541122688413 
0 
-0.02227132144095215 
0 
-0.004120420690544560 
-0.04806238340007255 
0 
0.02847518447714182 
-0.07312968250821268 
0 
0.0003681455929314265 
0 
0 
0.008994227645038572 
-4.336808689942018e-19 
0.03422828600048437 
-0.01538048612088717 
0.009485836299931710 
-0.05497183816638138 
0 
0 
-0.003068307065543429 
0 
-0.1239850048270700 
0 
0.001870484282391008 
-0.008414555684654212 
0.09295780300606360 
-0.03455511481101425 
-0.1149051434757235 
0.03792268522818902 
0.001870484282391008 
0.1568085610758069 
0 
0.001514128092598240 
0.03547975612030672 
0.03792268522818902 
-0.01034962501626709 
0.04147985358908420 
0 
0.02937047106325282 
0 
0 
0 
0 
0.02028580806696912 
0.01283601820909776 
0 
0.005165363639902439 
-0.005128083417875292 
0 
-0.08422422035399699 
0 
0.005165363639902438 
0 
-0.03418097701784117 
0 
0.03153609082870269 
0 
0.04235187226472889 
0.03370915970470661 
0.04981477172482116 
0.009170452602285365 
0.01807788424365932 
0 
-0.01089613171958147 
0.05527421371484362 
0.1360254265736474 
-0.01818226682820849 
0 
0.009916076130546961 
-0.09473460927856933 
0.04887806089985175 
0.03696922022211449 
0.01120910542623402 
-0.03207853958908931 
-0.006614789412556119 
0.01918257091689179 
-0.07969662627689080 
0.06532703825171254 
-0.04985740357489472 
0.06608180416446602 
-0.1121010415029971 
-0.01636444508742999 
0.09724889832140314 
-0.1465996709003058 
-0.003473439700700945 
0.06660030236113930 
-0.1019493252685817 
-0.6575118952640122 
0.004666235262579250 
-0.3185275638305740 
-0.03034549912732346 
-0.1873550934867526 
0.1012728734998968 
-0.08099172796105520 
-0.005864194603987545 
0.1738646163148902 
0.007065989877031859 
0.007421832739260268 
0.05658709866867178 
0.01677909478378705 
0.06849374432440936 
-0.002296908941200286 
0.04116005258145795 
0.002167271829100120 
-0.05258643844903099 
0.02181447059691147 
-0.2253386402083426 
-0.04957152368633435 
-0.002401110604259077 
-0.1065816380351519 
0.05976925889619118 
-0.01975861788147838 
-0.09226805042836263 
0.04363294845431143 
0.02296042239143127 
0.008096527047905542 
-0.006749353309829285 
0.009354419669113408 
-0.02071626225250745 
0.04479751800318739 
-0.005747106147492384 
-0.07383979701179096 
-0.04988730725530662 
-0.02872746868815439 
-0.1296467368723762 
-0.02931717053349362 
-0.009148136242458218 
-0.02897284907224032 
0.02340368793311963 
0.09386870418849029 
-0.02339658169381563 
0.07123132673697696 
0.02340368793311963 
0.1526134296669097 
0.05477789080839127 
0.04740912986110950 
0.02342962360434138 
0.06428353715483319 
-0.05964990869499623 
-0.04656278155438253 
0.02569440399967351 
0.001453997182073624 
0.07948229495856061 
0.01269337533275308 
-0.02980952031137049 
-0.04548242942526511 
-0.03540758035272047 
0.01383418984709629 
0.06337823486475025 
-0.07540066805678193 
-0.1195860974750736 
-0.001110572227729424 
-0.04161666594556025 
0.01833504102117239 
-0.1278109863568557 
0.1350824565466974 
-0.02594491083738437 
-0.01075160136461776 
-0.006222359883058432 
-0.02945712234543306 
-0.03635969859446953 
-0.01241942872466794 
-0.0008994359234999706 
-0.01469612234554494 
-0.03635969859446953 
-0.006626421781799975 
-0.01443688487658687 
-0.04218875945981599 
0.04931263499136188 
0.1125177685710802 
-0.006055347395472231 
-0.02191518855623294 
-0.1139546334125272 
-0.09579307328884763 
-0.005726985858299998 
-0.04834514733666399 
0.1321636066407244 
-0.02179284255530448 
-0.05357351057116583 
0.01732404124922635 
-0.08243499027246314 
0.01623230557545646 
-0.08639555848564132 
-0.1324876731572536 
-0.02040431335136213 
-0.01863290068763604 
0.02763207216173811 
-0.02896260502466407 
-0.07344878618417694 
0.006916826767358645 
-0.04421652397590503 
0.06001028233024346 
-0.01438590395754769 
0.06001028233024344 
0.06001028233024346 
0.04753787466126979 
0.1307349147855699 
0.03086633327753948 
-0.006993961990525300 
0.06001028233024346 
0.02686626765098718 
0.05624918234489465 
0.07835945018015873 
0.008455430940083580 
-0.01001789982865142 
0.1105591795435936 
0.03092306805989275 
0.0006775966395763293 
-0.004821966326976775 
-0.001010992657954338 
0 
0 
0 
0.09992802853922073 
0 
-0.02959686332929659 
-0.09079409575189541 
0.04705992157502801 
0.09457271256088821 
-0.004667771437572517 
-0.01369917931488107 
-0.02477489700231982 
-0.004667771437572517 
-0.01369917931488107 
-0.02477489700231981 
0.08311600602707706 
-0.01275788832516713 
0.1194376190048150 
-0.06983898978153824 
0.03251243133000375 
0.09681518534195813 
-0.008090116887594612 
-0.008090116887594612 
-0.008090116887594612 
-0.008090116887594612 
-0.008090116887594612 
-0.008090116887594612 
0.003794887969947574 
-0.006535521327317556 
-0.05586272107107346 
0.01607831303330404 
0 
0 
-0.002983634483957972 
-0.006153759844885784 
0.002613718654509873 
-0.002983634483957972 
-0.006153759844885785 
0.01725884389712521 
-0.07384059766704680 
-0.04403339829823805 
-0.01634838800267400 
0.02805801526936055 
0.02916127449887316 
-0.1440101327357798 
0.06246022987623145 
-0.04273061840206502 
-0.02170306742032278 
-0.06357488162771940 
-0.02170306742032278 
-0.08290533756029209 
0.001554595560277058 
0.01662619686542688 
0.002866447532091673 
-0.002876928744607984 
0.01875643574087122 
-0.03844893604994580 
-0.05500141950601405 
0.03784456940367145 
0.06563023231892431 
0.04326494789329268 
-0.1502923845637534 
0.01419901203288975 
0.01828957164223800 
0.01419901203288975 
0.02805801526936055 
0.02477187876791737 
-0.06236416315346065 
0.01432067065054998 
-0.04022483883317853 
0.01385900323647080 
0.01432067065054998 
-0.005672651035768433 
0.02325766298059983 
0.02325766298059983 
0.01089456111052902 
0.02325766298059983 
0.04976108268968332 
0.06744059840852124 
0.04367962838806942 
0.02650341970908349 
-0.02401692637608019 
0.02650341970908349 
0.02650341970908349 
0.02650341970908349 
0.1071219989471664 
0.1090080543929504 
0 
0 
0 
0 
-2.168404344971009e-19 
0 
-2.168404344971009e-19 
0 
-0.004964444126941131 
-0.03237818094219874 
-0.06822845722000274 
0.1485716534563069 
0.02557176505540679 
0 
4.336808689942018e-19 
0.009796940212825163 
4.336808689942018e-19 
0.009796940212825163 
-0.02711677642212120 
-0.05606377028702350 
-0.007812299940817642 
-0.001858600756603017 
8.030087201748426e-05 
0.02574216682951998 
-0.003673980882365815 
-0.01556367215326000 
-0.007812299940817642 
-0.01177377380001846 
-0.01772747298423308 
-0.01556367215326000 
-0.007812299940817642 
-0.01177377380001846 
-0.05135238391236901 
-0.1455647537632702 
0.01597215065415681 
0.006280748398638654 
-0.07100469448056172 
-0.07960069621424613 
-0.03578871175910903 
-0.04558565197193419 
-0.04558565197193419 
-0.03976927368459408 
-0.07588132611000087 
0.02826221857293407 
0.02245368788238238 
0.03210562423520206 
0.02874861045034885 
0.07722332722915604 
0.1040683504880815 
0.07629069577931176 
0.06348112890425783 
0.06348112890425783 
0.06348112890425783 
0.06617352114372149 
0.03554309291143708 
0.01041910090360478 
0.03554309291143710 
-0.01622559544594168 
-0.06067442716209290 
0.04393686053372894 
-0.1649185037673091 
0.01701019303914047 
-0.007912258808572605 
-0.004718957179297363 
-0.006553200703908726 
-0.004718957179297363 
-0.004718957179297363 
-0.004718957179297363 
-0.07762152287913446 
-0.004718957179297363 
0.04063429585156361 
-0.07708757956327605 
0.04972917955087698 
0.06101210886194762 
-0.01459176702017579 
0.04640059703532583 
0.01109165738673174 
-0.05973626546356429 
-0.03847858988033000 
-0.08966013842445811 
-0.1149489510185574 
0 
0 
-0.07485334070751436 
-0.07987277868173784 
0.04535325303086098 
-0.04393523842469942 
-0.005347329968369808 
0.06943870635392045 
0.07902771264045189 
0.09891878945190122 
-0.1593584760664528 
0.03750467746313474 
-0.03834314943248169 
0.03091810228281495 
0.1278970454128449 
0.06943870635392048 
0.06943870635392048 
0.06943870635392048 
0.06943870635392048 
0.06943870635392048 
0.1351209131720204 
0.06685209645135451 
0.02561773753428399 
0.04927361438356637 
0.07270691767529548 
-0.03351803917044988 
-0.007192713760556800 
-0.002586609902565958 
-0.002586609902565958 
-0.07532307032152044 
-0.02662033838803761 
0.04027796048300677 
-0.08378929412597441 
-0.02505311010787072 
0.01093054149478699 
-0.001019381622399059 
-0.05596775737625740 
0.05215290322518471 
0.01885624743702707 
0.02678214563216349 
0.05460750181187224 
-0.008466223804453934 
0.02403372848547165 
-0.08996998943471081 
-0.03020868932646904 
-0.02934741898821979 
-0.04925590307690950 
-0.01977560057208572 
-0.03020868932646904 
-0.1114914298210864 
-0.03020868932646904 
0.05788378818827007 
-0.01977560057208571 
-0.02934741898821979 
0.05788378818827008 
0.02729069896387958 
-0.002625493913300601 
-0.01605371991096126 
0.1387414339553000 
0.01396335411254809 
-0.08653049896604960 
0.03786971510789634 
0.0008612703382492519 
0.0008612703382492519 
0.01176893692043162 
0.01176893692043163 
0.01176893692043162 
-0.04851567795864954 
-0.01402336734464328 
0.01176893692043162 
-0.05354230017483250 
-0.03276349459494138 
0.05454895982742135 
-0.007740635475472518 
-0.09097882273230568 
-0.01831625792174353 
0.1065932409372306 
0.01968053762494432 
-0.07886619507391972 
-0.002779000095938138 
-0.04641098300917464 
-0.1590507525229022 
0.004629271339271804 
-0.05112237440101874 
0.02672192507491918 
0.02672192507491918 
-0.03167657535150537 
-0.002950208143803893 
0.02672192507491918 
0.01508638570598113 
-0.01874012725029814 
0.04278002290698979 
0.01845073655786215 
0.01845073655786215 
0.01845073655786215 
0.04483948914949204 
0.07376803725232875 
0.05894341766870104 
0.01113942237036468 
0.1252809024285745 
0.02895763041517326 
0.02895763041517326 
0.02601208580756067 
0.02895763041517326 
0.08542622307704352 
0.04489129579432208 
0.04540364214587622 
0.08479196899739098 
0.07823493692784080 
-0.001054965491625036 
0.1888938652878345 
-0.1055376107127731 
-0.1548529340023415 
0.05115855307345281 
-0.003277957582658145 
-0.05726696192947820 
-0.07594893235800616 
-0.05726696192947820 
-0.04498535702327426 
0.02388903932619678 
0.02395115244648180 
0.03785230535659302 
-0.01389012499237154 
-0.03707432975259453 
0.07854906144019788 
-0.004277542100039713 
0.01691666566914390 
0.03522982461700215 
-0.03803294951639168 
-0.002807188990494956 
0.02603564982877201 
-0.01477892676786985 
-0.02938968604949381 
-0.1239729208472780 
-0.09425074515910915 
-0.01569434946719415 
-0.02391908770863253 
-0.08876490451511830 
0.07509233241699025 
0.07301297252164600 
-0.1626295976063274 
-0.06296720671203855 
0.07210978875492728 
-0.08882637855734396 
-0.06663188341456466 
-0.01276263321153544 
-0.03084758177978999 
0.009306977203577784 
-0.004561287533574249 
-2.168404344971009e-19 
-4.336808689942018e-19 
-0.1007317156626258 
-0.08262054645009198 
-0.1007317156626258 
-3.252606517456513e-19 
-0.08362726420141240 
-0.1566717037651963 
-1.238677898983821e-05 
-0.1019134746614776 
0 
-0.1074980624983974 
0 
0.01323484843131194 
-0.03986194409061334 
0 
-0.05564561891812479 
-0.02807640233075686 
-0.007426393303950517 
-0.1200460951847823 
-0.01122991307945469 
0.03755439362595478 
-0.003295890376576645 
0.01950270545165976 
-0.003295890376576642 
0.02231883341120319 
0.02869792579049276 
0.04297601967328343 
-0.003628169950566174 
-0.007672499412657680 
-0.05422622829156383 
-0.007672499412657680 
-0.007672499412657678 
-0.05422622829156383 
0.02762486320287602 
0.01121752630046483 
0.07349335679139880 
-0.05976750520665254 
-0.1523907203282141 
-8.673617379884035e-19 
0.006751169352329384 
-8.673617379884035e-19 
0.008806378471713167 
0.01623856410978505 
0.01889002571312251 
0.01623856410978505 
-0.06504159523771380 
0.02036461874389988 
0.05796687212408472 
0.01551453964707282 
0 
0 
0.06567716253018390 
0.007087648189708954 
-0.07725552827370036 
-0.05478372052638489 
-0.04790703549988028 
0.01366461503425169 
-0.04094903417148157 
0.05699947235132843 
-0.03230206752072982 
-0.01363651820403887 
-0.02014920018220689 
-0.005304220933317783 
-0.02014920018220689 
-0.02014920018220689 
0.006576966844542733 
-0.02014920018220688 
0.04009760688157671 
-0.005180849092669336 
-0.01997087738755282 
-0.007059077889340831 
-0.1158052768462477 
0 
-0.01282603974365962 
-0.3501356411499039 
-8.673617379884035e-19 
-0.01282603974365962 
0.03703137927643065 
-0.01880973429911813 
0.04843507454374397 
-0.07722067674010441 
-0.08445965264484927 
-0.03557841688436575 
0.04609270500475777 
-0.001088294029356397 
0.1205607632503680 
0.01605201669189743 
0.01496835108953755 
0.01496835108953756 
0.04893335447116194 
0.01245703606325475 
0.01343901357211408 
0.02668214449729347 
-0.06676642475211375 
-0.01905981358415426 
0.1105030182317183 
-0.02129368148049669 
0 
-0.05194107611789491 
0.04716563899854635 
0.02755234084523942 
0.006458251696889174 
0.02500052336326284 
-0.03273051439791487 
0.07730340042182006 
0.03320254040555221 
-0.006900356658661142 
-0.01613245770913627 
0.03554785149359374 
-0.01913657097058382 
0.01411775471530089 
0.006458251696889174 
-0.01044394648082213 
-0.03441924229821598 
0.03009562497050263 
-0.08897368657315591 
-0.08295855852246677 
-0.05819225081097221 
-0.07158300800746126 
-0.01398775422431113 
0.01172011862622560 
-0.03340306835546799 
-0.002759332453423178 
0.01927473771165744 
-0.007789113699813377 
0.1249608725909293 
0.07284227058029960 
0.007993082110799061 
0.009655253797455366 
0.03817993965199343 
-0.1049916370197987 
0.02664148653506100 
0.02664148653506100 
0.02664148653506100 
0.02664148653506100 
0.03841515833499254 
0.05590691105227165 
0.008685160917258215 
0.06898449518569684 
-0.02052819801346768 
-0.09240055136882565 
-0.02052819801346768 
-0.1730232638721774 
-0.02257780646413884 
0.001083208496110918 
0.02775959074414101 
-0.06832067769294982 
0.01682278806284255 
-0.01803821815949337 
0.03040590396668290 
-0.01580487617128705 
-0.005925041025280528 
-0.06101883706029537 
0.007572910230267505 
0.05313627671503561 
0.09055255939590115 
0.04645976947557458 
0.01210658650949202 
0.06806479048817737 
0.07168505367702022 
0.02337778640155457 
0.02337778640155457 
-0.02108779165309959 
-0.04229924109767518 
-0.1216794128495405 
-0.09158828679793808 
-0.1022520800554784 
-0.07159675321414606 
-4.336808689942018e-19 
-0.06430994339208523 
0.05241593445504368 
0.05036882540044977 
0.01721574390780664 
0.05533552026932954 
0.07101561439857436 
0.07101561439857436 
0.02515532177623243 
0.09661698920518252 
0.05293092591843634 
0.03046028172726572 
0.01756578629565571 
0.05293092591843634 
0.05293092591843634 
0.01721574390780664 
-0.004499986481747550 
0.02198710605592791 
0.006081756508518011 
0.05805619988889954 
0.06150592946901866 
0.04471196266587510 
-0.02722752463128006 
0.03606909383297163 
0.01655174453285643 
-0.05069426763831651 
0.08602447904289315 
-0.06819329702119557 
0.01249783955047971 
0.1108874951458066 
-0.08347300373902113 
0.04941347510407108 
0.03578746959447043 
-0.03794440819991619 
-0.05901682190556842 
0.04185727200162616 
0.08180146871009547 
0.08241799335847674 
0.06722261672378613 
0.02229962654388278 
-0.03521750896281694 
0.01308154277354201 
0.01308154277354201 
0.01308154277354201 
-0.02764127302514052 
0.09421168343282588 
-0.04489477334964649 
-0.04808738128636445 
0 
-0.1005507670983857 
0 
-0.09432439740386277 
-0.03425391347336508 
0.02261832917256350 
0.06794661249107327 
0.01174351334798909 
0.03046209157684791 
-0.2499120226660073 
-0.09083959135519376 
-0.04969630188481133 
-0.01566206201769918 
0.02018037144599743 
-0.009350658207381027 
0.02730497199322782 
0.02103588982463146 
-0.06847442465604223 
0.1029444103906009 
-0.02047930230554489 
-0.009979943519450031 
0.02776585906559406 
0.01684984017152524 
-0.04838584054870118 
-0.02262800342078868 
0.08817586453370685 
0.05570721645993616 
-0.01750822599968290 
0.01364784691558324 
0.01340351479491183 
0.07571074541484196 
-0.06688321898970999 
0.09068479834166265 
0.006816253277399146 
-0.01150429965143759 
0.03087761454901832 
-0.05659504523912947 
-0.04230370166502435 
-0.02175145945604701 
-0.007423638419308757 
-0.01021087214206712 
-0.007423638419308757 
0.02477173135733327 
-0.007059486137820850 
-0.003484537861154173 
0.07773897701014951 
-0.01739955392813225 
-0.007423638419308756 
0.01348128528703885 
-0.1683884120695844 
0.002076801897198526 
0.004270103322784212 
-0.01034006779031139 
0.007593334322635023 
9.215718466126788e-19 
-0.01448058609419582 
0.007593334322635023 
9.215718466126788e-19 
0.0006941571112550056 
-0.01593536745399279 
0.01201049799757233 
0.0007548963897068600 
0.02937151048841066 
0.007088945817664585 
-0.008428249278926986 
-0.1036264020437662 
-0.01090701232982671 
-0.01090701232982671 
0.03121461784537461 
-0.01090701232982671 
0.01946979674804941 
0.01245094489378323 
0.01553686877130855 
0.1075021954335086 
-0.04738347720081764 
0.01721554138285861 
0.003657496160878976 
0.008163662991364517 
-0.03585788688354779 
-0.03912353062860061 
0.02644388110113527 
-0.03585788688354779 
0.03119790212349743 
0.02644388110113527 
-0.03585788688354779 
-0.002797459575474693 
-0.03594634121092159 
-0.03109547809838984 
-0.03058800081049871 
0 
0 
-1.951563910473908e-18 
0 
0 
-2.168404344971009e-19 
0 
0.03876391411847802 
-0.01979995386756717 
0.02100484024474459 
0.05968430266652098 
0.1407370147082804 
-0.03120903611483087 
0.08285541893635878 
-0.06613493508432014 
-0.09188872637577741 
-0.01120070186803351 
0 
0.003256426512910042 
0.01845164610967623 
0 
0 
0 
0.01238581494914052 
0 
0 
0.02100484024474459 
0.01229736062176676 
-8.845432737376955e-05 
-0.02829801852291517 
-0.02914495368294514 
-0.01061833357782198 
-0.02109329457211836 
-0.003380454168544590 
-8.845432737376868e-05 
-8.845432737376868e-05 
-8.845432737376868e-05 
-0.02109329457211836 
-0.02109329457211836 
-8.845432737376825e-05 
-8.845432737376695e-05 
0.01475685684961666 
0.03305294522317095 
0.01475685684961667 
-0.001980706719387514 
0.1276738329422847 
0.02100484024474459 
0.02100484024474459 
-0.01827141064645668 
-0.01340334451345727 
-0.04377595511828587 
-0.01340334451345727 
-0.006886807999632145 
0.06066063199144067 
0.002364817081658911 
0.03314139955054474 
0.06066063199144067 
-0.05275265976216490 
0.08972874790087096 
-0.03438248600461293 
0.04224835736246004 
0.01502757394986474 
0 
-0.05511747684382384 
-0.003872377546760974 
-0.05959114119815456 
-0.003872377546760974 
-0.003872377546760976 
-0.01523330862136542 
0.02431028237447042 
0.1395920813162394 
-0.04878806984733849 
0.01837017375755199 
0.01770512268909726 
-0.07838391435173914 
-0.1364105357238662 
0.07854987850980977 
-0.06577309927977557 
-0.1108336369135196 
0.04956753286212261 
-0.01167076090932685 
-0.08846251602984995 
-0.01849364135988308 
-0.02077066026252236 
-0.1213819972708773 
0.05084569168691887 
0.1579653273419907 
0.06084475582071248 
0.004025440209393114 
-0.07051098524586268 
-0.1126161005383548 
0.03031580694418855 
0.007671736956489952 
-0.04329722124598095 
0.05611078248249872 
0.04418345055575275 
0.02782092189215885 
0.1255818633328350 
0.03662950251836125 
-0.06872628957685432 
-0.05976095582937463 
0.1029798942919325 
0.02579497553831018 
0.1206120856430471 
0.02579497553831018 
0.02579497553831018 
0.09525801795647408 
0.0003704618605591783 
-0.02280165776490484 
0.009986227298197096 
-0.05154613251386718 
0.05557348572957216 
-0.04885754708112315 
0.01811117806874276 
0.1041988092477695 
-0.04885754708112315 
0.1157099582173792 
-0.06504239341554244 
-0.03070420386659953 
-0.1635895856877037 
-0.03544927177229988 
-0.04646070130242195 
0.09592514394296689 
0.009617682834598022 
-0.01370689081180431 
0.001698542877720956 
-0.01850866194642575 
0.001650161911748680 
-0.05438551440453812 
-0.001267322210368727 
-0.01538122806249044 
-0.04422689736810932 
-0.04831521652906898 
-0.07916020556100518 
-0.03587685245811234 
0.04226387037767697 
-0.005805715198969328 
-0.02426607888902187 
0.07342851634134456 
-0.003259957327908169 
-0.02172032101796072 
0.08458522057405793 
0.05626269242070069 
-0.002847399165495534 
0.03921853756470161 
-0.01609212476205784 
0.01115670423271332 
-0.005327623684913496 
-0.03575183104720980 
-0.06113907787200487 
-0.001582370305851994 
-0.09158635238587629 
-0.05277343402803403 
-0.02585277767680246 
-0.07757931051689262 
-0.1646418152724728 
-0.04620204363727667 
0.02657281517783645 
0.009899053370407349 
0.009899053370407349 
-0.04794989076872448 
-0.03183296391438518 
0.04966895380442690 
-0.03448992248118949 
0.009899053370407349 
0.04979523196053959 
0.06767888029586072 
-0.0008046806369517582 
-0.05703510113200810 
0.07297343071988487 
0.05064632574073436 
-0.01638624960603220 
-0.05205556550981724 
0.05784894413913182 
0.05784894413913182 
-0.02138788524539603 
0.007303561632015908 
0.0005364603208270805 
-0.02941047931003816 
-0.0001117965379987748 
-0.01306791008715361 
-0.02155792282040298 
-0.02727004585198778 
-0.08736686734117208 
-0.01754453828158616 
0.02427232733054328 
-0.01420213576483417 
-0.009980590108756110 
-0.1291581403214317 
-0.009980590108756110 
-0.009980590108756110 
-0.09602280172316024 
0.01356251102658966 
0.02163406878227481 
0.01466964683215438 
0.01203838043977570 
0.02480876269052338 
0.02354310113534577 
0.02354310113534577 
0.03161465889103095 
0.06539287215385810 
0.02457769630086650 
0.03161465889103095 
0.09599560085815186 
0.06632143641120801 
0.005414040226547300 
0.09999523731207659 
0.05816149170857312 
0.05816149170857311 
0.009456830399273896 
0.06035036397371324 
-0.06160290829250825 
-0.001023706041100306 
0.05629695848286923 
-0.02215345141962432 
0.04055325628310546 
-0.03526695795449466 
0.07098470714633034 
0.02564723243498056 
-0.05705435590300840 
-0.05705435590300840 
-0.03285673588709606 
-0.04613422176195916 
-0.03980587798052141 
-0.04613422176195917 
-0.03980587798052141 
-0.02444611079673987 
-0.03556994181862484 
-0.05968917441743190 
0.03156651879732464 
-0.1016797658713596 
-0.06497731524879971 
4.336808689942018e-19 
-0.04208047088950915 
0 
-0.001140515573248580 
0.01506684909622665 
0.02732392903654905 
0.002212662705366606 
-0.08566821500790528 
0.1321851411825520 
0.04123801977629504 
0.07455760553413741 
0.02261514422516961 
0 
0.04123801977629504 
-0.05860506594760215 
0.03243205518460666 
0.008912541770995831 
0.01906137013650084 
0.1693416198950334 
-0.01028095170537153 
0.08842554038825393 
-0.01028095170537153 
-0.01028095170537153 
-0.04286127322286240 
-0.01028095170537153 
-0.01028095170537153 
-0.01028095170537153 
0.02350207381551068 
-0.03304116507927860 
0.0006227201769914360 
0.1760874255246009 
-0.03670643880579506 
-0.04811374093258077 
0.01723296611478244 
0 
0 
-0.01722329094720901 
-0.04815102569648451 
-0.05119106372218206 
8.841173146334827e-05 
-0.07888415461521069 
0.02860852669446776 
-0.03900259206169815 
-0.04475185078556900 
0.06293036186056877 
-0.02642548710042357 
0.01358232191794574 
-0.04094709425546439 
0 
-0.02367948339777402 
0 
0 
-9.215718466126788e-19 
8.199278929421627e-19 
-0.01345965132923360 
-0.2982861808385832 
0.07785106820279199 
-5.421010862427522e-20 
0.03040827584753321 
-4.743384504624082e-20 
-0.03265715371152867 
0.1162741408013386 
-4.743384504624082e-20 
0.07623616690408251 
-0.06891459259127192 
0.1187130229429051 
-0.2182699501250731 
-0.007504568938302905 
-0.02643360348927542 
-0.004200022288379214 
0.1470071604413229 
-0.03625743887974316 
0.05668164569288432 
0.04347931716342320 
-0.02642548710042356 
0.08651905293454805 
-0.005955082390930684 
-0.005074389003916998 
-0.04916439800861890 
-0.005955082390930684 
-0.07414218654520986 
-0.005955082390930684 
0.01584977137243575 
-0.01892091816212067 
0.04569234019506120 
0.05919745809909182 
0.08925076762232140 
0.09965855143398059 
-0.04967508745690022 
0 
0 
0.04328179636080472 
-0.02428700538272879 
0 
0.04328179636080472 
-0.001200379447099948 
-0.002354161495627235 
0.05023754671076467 
0.06743528144475591 
0.003298153445863013 
-0.02262682600175902 
-0.001200379447099949 
-0.05219768141175513 
-0.01896186682652733 
0.01649138094687762 
-0.07987191716375472 
0.008935874880361735 
-0.09235966825844247 
0.01418549321780291 
0.008871422152639561 
0.07329986670258132 
-0.09117355146810097 
0.01039902353355973 
-0.01248775109468766 
-0.002238385895545426 
-0.02451824942467067 
-0.02451824942467067 
-0.05143451567489797 
-0.06397193462476883 
-0.001624475776173547 
-0.01689729640715638 
0.02229998590478606 
-0.01458853641486038 
-0.03034666864539886 
-0.1062252641517108 
-0.04163619572352299 
0.01521497300923346 
0.08502831629588994 
-0.03636144922186657 
0.08502831629588994 
0.009111137003405453 
0.04968140292252472 
0.005859534768789324 
-0.01155872831688125 
-0.01895443626566445 
0.03541003818948970 
-0.08009575488834192 
0.04875101293026760 
0.06073917259470312 
0.04049598472294674 
-0.03534691337336527 
0.009296639425952227 
0 
0.05194039871878248 
0.02831971742330876 
-4.336808689942018e-19 
-0.006458202648130251 
0.005409975867622026 
0.06307464561799386 
-0.007405916594535954 
-0.04050810845038165 
0.005409975867622027 
0.006615419499453368 
-0.01503086879167451 
-0.01252108313436532 
-0.01166488573333189 
0.06551835196049394 
0.05539819904485097 
0.04711269899088899 
0.1708566134097786 
0.01231135999239584 
0.04611113557934558 
-0.01503086879167451 
-0.04627662653965781 
-0.08652287423062538 
0.005042155298659840 
0 
0 
-0.04642322981931284 
0.03250279863308177 
0.0005228868298034709 
-0.009995948876631229 
0.008825334418143130 
-0.008179403689077647 
-0.02932229496227855 
-0.04373473130219024 
0.03221853792996249 
0.004642232791361530 
0.02744490844284824 
-0.03002714752781352 
-0.2033922330688525 
-0.1216381995005714 
0.03349813032216919 
-0.01691472627999828 
0.05020121284308866 
0.01737689696595908 
0 
0.004251589891035188 
-0.009242205462848510 
0.03273401628090368 
0 
0.05331372961017809 
-0.03829873471242122 
0.04487534401523981 
0.009915173043415442 
-0.01379895566357911 
0 
0 
-0.01379895566357911 
0 
0.02572337437014643 
-0.007109332925732260 
0.06862149429803752 
-0.0004431578487458744 
-0.01781579447325610 
0.03952233003372554 
-0.02503187757915993 
-0.007578035642633304 
-0.02834934101571033 
-0.02182823948405286 
-0.01007812156148381 
0.03013304890471701 
-0.02182823948405286 
0.08271459228332552 
0.02403881066035678 
0.02029826546059420 
0.05253215229662041 
-0.006094238244360211 
-0.006094238244360211 
0.04726707343762426 
-0.006094238244360211 
-0.07546602828544476 
-0.1091147797116711 
-0.03504657555587586 
-0.01961934714621662 
0.01022267348594603 
-0.002500085918850509 
0.06230938175476687 
-0.02153390451982619 
-0.01961934714621662 
-0.04390368547155543 
-0.03724873608923680 
0.008618710744601276 
0.01437110014193506 
-0.01719765992033392 
-0.001148627795580783 
-0.03277214030533202 
0.09830610780705320 
0.05848238992042733 
0.09830610780705320 
0.05724036240797960 
0.006046325873446765 
-0.03163396488016998 
0.006046325873446765 
0.02814652834498508 
0.05222338689855183 
-0.002112547301916810 
0.05368411804753626 
-0.008679011111669492 
-0.003611458245566694 
-0.006683156466041993 
-0.08200166859060765 
0.06215813376266292 
0.02794412141470491 
-0.008158873175363575 
0.02794412141470491 
0.09047596320090738 
0.02347789956604345 
0.01413952618935432 
0.04131968113670424 
0.0008859377286264227 
0.1216961993962615 
0.1352710531397390 
-0.05760548805192634 
-0.02142791092854954 
0.009064433419804464 
-0.03832431040480945 
0.01892302807965157 
-0.06515144676323978 
-0.01063812305388672 
0.001209755489403172 
-0.004118215528925240 
0.003982327407889555 
-0.01385466216609258 
0.003205734848041298 
-0.04338183925121854 
0.003904473860788894 
-0.01047470643754675 
-0.04338183925121854 
0.001259343905134112 
0.003904473860788894 
0.001012550654778674 
-0.01426371446570288 
-0.02814936474845872 
0.01181911081763578 
-0.03802219501101076 
0 
-0.01565101656378703 
0.07779454506179538 
0 
0.04842527245716768 
0.01797733702306880 
-0.002879381864010292 
-0.01204493277367813 
-0.08109450674799520 
0.006299749470936278 
-0.02936927260462770 
-0.05151286021362180 
0.02486446956022859 
-0.01408810826349677 
-0.05151286021362180 
0.02486446956022858 
-0.06435741336869197 
-0.006198799933046028 
-0.1291293513835753 
0.07101236240215189 
-0.03368592646478322 
0.07787359042643965 
0 
0 
-0.02519236553085883 
0 
0 
-0.002829605236401690 
-0.003361390609548022 
-0.003361390609548024 
0.006674968893149638 
-0.01141687825251337 
-0.003361390609548022 
-0.003973684232145050 
-0.003361390609548022 
-0.01130542103419630 
0.02422760182159091 
-0.003361390609548024 
0.1177382541446782 
0.008590080609862771 
0.02416715497208427 
0.03853439274730851 
-0.005847268221016286 
0.005548815839101507 
-0.03559496274962649 
-0.03559496274962648 
-0.006752642608282248 
0.05531262844631905 
-0.006752642608282248 
0.009787894321325331 
0.03101470149394910 
0.01277937222148162 
0.003367713823737717 
-0.04838528264455547 
0.01138850263719458 
-0.09004062120535660 
0.02809503925817396 
0.08633047579496406 
-0.02160671683377881 
-0.02956237212944526 
-0.02956237212944526 
-0.02956237212944526 
-0.04163264003627318 
0.006376607765292397 
-0.005233346825493505 
0.03586335372330432 
-0.07307786828478859 
-0.04949097622714106 
0.003788280001480270 
-0.01508541761237215 
-0.03251679049151234 
0.04692880081607902 
-0.002814069777973059 
-0.002814069777973059 
-0.002814069777973059 
-0.03707697770329062 
0.07893490307529957 
0.04692880081607904 
-0.05981000911531198 
-0.03707697770329062 
-0.002814069777973058 
-0.01474247455596202 
0.1492291100562198 
0.02081425897506253 
-0.002814069777973058 
-0.01690638792655087 
-0.01065401467786054 
0.07662782915657063 
-0.07716020041226541 
0 
0.0006922469264962431 
0 
2.168404344971009e-19 
0 
0.0006922469264962431 
0 
-0.005734165189297117 
0.02021556068940907 
-0.007839944899887477 
-0.02778423601509738 
0.02546742744760785 
-0.007839944899887477 
0.01952331376291284 
-0.0006792974092892634 
-0.0006792974092892634 
-0.007839944899887477 
-0.007839944899887477 
-0.0006792974092892634 
-0.0006792974092892652 
-0.007839944899887477 
-0.007839944899887477 
-0.007839944899887477 
0.01626509853654476 
-0.007839944899887477 
-0.0003308659271567935 
-0.006956258187382089 
-0.007839944899887477 
-0.01605057687340434 
-0.01498971053177638 
-0.007160647490598215 
0.01694439594583402 
-0.007160647490598215 
-0.007160647490598215 
-0.007160647490598215 
-0.01537127946411506 
0 
0 
0 
0 
0 
-0.008210631973516845 
-0.008210631973516845 
0 
-0.006651565215208671 
-0.008210631973516845 
-0.004071489944077487 
-0.008210631973516845 
-0.005415400954907113 
-0.008210631973516845 
-0.008210631973516845 
0.01807049056426054 
-0.008210631973516845 
-0.005415400954907113 
-0.008210631973516845 
-0.005415400954907113 
-0.008210631973516845 
-0.008210631973516845 
-0.005415400954907113 
0.01489759899505315 
0 
0 
-0.05617736172897887 
0 
0.01476099999988811 
0.02192281371788267 
0 
0 
0 
-0.01991907635165429 
-0.06638582677889379 
0 
0.05816946036070787 
0 
0.01180149232054695 
0.07272222218936031 
0 
0.01180149232054695 
0 
0 
0.01460130390325207 
0.001060866341627952 
0.001060866341627952 
-0.1094454877851136 
0.01083172089790558 
0.01329349177118704 
0 
0.08268074371268185 
0 
-0.01497812049957694 
0.01286773182917766 
0.001060866341627952 
0.001060866341627952 
0.001060866341627952 
-0.06119967452116708 
0.04392952569124478 
-0.01497812049957694 
0.01610555869151843 
-0.01440891621048571 
-0.002792730739353811 
0.03424172002879367 
0.0001856369111230393 
-0.003095141420134854 
0.03424172002879367 
0.03424172002879368 
0.01686339845772931 
-0.01422187124702787 
0.06857436045253844 
0.02666176088184789 
-0.05396678762281740 
0.02663527095239314 
-0.03108526970475718 
0.02663527095239314 
-0.03108526970475718 
0.05826770509504796 
0.04981145210271549 
0.03611000142733534 
0.03163243414265481 
0.03163243414265481 
0.03462183847201333 
-0.0006064044066671007 
0.03462183847201332 
0.03462183847201332 
-0.02470169051795447 
0.1105283217925812 
-0.002927604413389643 
0.004630988863373731 
-0.006556743100238762 
-0.006556743100238761 
-0.03154615849650217 
-0.006556743100238761 
-0.03154615849650217 
-0.006556743100238762 
0.02507569104241605 
0.04120263217464734 
0.07054348308569966 
-0.03670675046935434 
0.06158116564449583 
0.01324902965737959 
-0.02500147519308615 
-0.1117593113627107 
0.002587877907259427 
-0.01935071936219271 
-0.02588326851325261 
-0.09193369088890344 
-0.07452499580760180 
0.005384666451278307 
-0.006734885375605181 
0.03514273577576619 
-0.1411929358215668 
0.01980577275761834 
0.03351151263504494 
-0.1563437168245548 
-0.1006802931251842 
0.02858164988342082 
0 
-0.001112876923017345 
-0.02222633545563761 
0 
0 
0.002159028766057783 
-0.03920736708368092 
0.02324943860259675 
0.02324943860259675 
-0.001297874155482639 
0.002409232133995680 
-0.0006446187191370316 
-0.07801025857858214 
-0.06371214973051821 
-0.03607618719503443 
0.02324943860259675 
0.02324943860259675 
0.1162331831053374 
0 
0.04325932566304792 
-0.02380042614916172 
0.03569894278079695 
-0.1104397980143219 
-0.08696158833311496 
-0.09465143375770690 
0.08075918174992174 
0.07410344466080891 
-0.07382484615619700 
-0.08524038780202328 
-0.1407216757952073 
0.02324943860259675 
0.02531407622432243 
0.02531407622432243 
0.1001638099615744 
0.003122780060708282 
-0.01145666668780040 
-0.01145666668780040 
-0.009334336618306491 
-0.01145666668780040 
-0.01145666668780040 
-0.01145666668780040 
0.02243497491084847 
-0.08696158833311496 
-0.04280310455829914 
-0.01145666668780040 
0.02669209497449419 
0.01052420685465280 
0.08345814357772831 
-0.03472055292638389 
-0.04784359663097938 
-0.007199546624154686 
0.02875673259621989 
0.02894027313988987 
-0.02673455833991938 
0.004257120063645717 
0.004257120063645717 
-0.001795647836771109 
0.008708475802143073 
0.002706564912348003 
0.008708475802143073 
0.005028479403433295 
-0.05324271506869902 
0.01010131426905074 
-0.02903682236078100 
0.006052767900416826 
-0.01430136692563767 
0.04265532554347643 
0.004502212749119113 
0.09491481026552877 
0 
0 
0 
0 
0.03424172002879367 
0.05241846248301749 
0 
0.1014170197717997 
0.03388009261155565 
0 
0.09532387629943168 
0.02179940846871017 
0.01036787163872689 
0.04419557643133744 
-0.01306143775511853 
0.008655315554501965 
0.01452887685540306 
0.02157988130068751 
0.05225948472205222 
-0.07324538595139002 
0.01571393135158195 
-0.05902519980060136 
-0.003404731824238976 
-0.01841830485521274 
-0.05430746855179485 
0.02596590838942611 
0.1445897838515114 
0.0002752645744707999 
-0.01878589705854695 
-0.01878589705854695 
0.0002752645744707990 
-0.02124267799824865 
-0.01878589705854695 
-0.03701430642925530 
-0.09418028405941314 
0.1133849740546850 
0.01298131101218376 
0.01906116163301775 
-0.06209026282201322 
-0.06204924669243030 
0.04836084956064722 
-0.03389355881220342 
-0.06823491814592621 
-0.04334813681581226 
0.05105915580095213 
-0.04334813681581226 
0.01810581762759922 
-0.04334813681581226 
-0.07539438700086626 
0.03402498500598245 
-0.1307421768847624 
-0.07589953720539386 
-0.01146660231429092 
-0.03529699446335551 
-0.02073599969734745 
-0.01046423265090533 
-0.003211293327623944 
-0.03044825557185674 
-0.02470860200774400 
-0.01271278385550004 
-0.03196688122291938 
-0.03196688122291938 
-0.02956836047509659 
-0.01271278385550004 
-0.03457776500204451 
0.02161748740972515 
-0.03196688122291938 
-0.02956836047509659 
-0.05705694120217028 
-0.01739780884053234 
-0.02952573368904408 
-0.002841248666328693 
-0.07299696884799953 
-0.01739780884053234 
-0.02898740498725747 
0.03373821327834198 
0.1147390618304627 
-0.03082271028002633 
-8.131516293641283e-20 
0.03759433222535282 
-8.131516293641283e-20 
-0.0005051502045275222 
-0.07762056535288480 
-0.0005051502045275222 
-0.0005051502045275222 
-0.0005051502045275222 
-0.06227885786373238 
-0.01050431381769885 
-0.01874894716289180 
-0.06177370765920485 
-0.01874894716289180 
0.03176749235475875 
-0.02490896415295424 
-0.03915764009442806 
0 
-0.005238783928972641 
0.002630033095923161 
0.01394610638050007 
0.001522361926750392 
0.002630033095923161 
0.01422396856592868 
0.03066482415426382 
0.03630056313488176 
0.06935361112364930 
-0.06087219416090509 
0.01898400623001684 
0.06166984883375306 
-0.05424986683058650 
-0.1560345123713700 
0.06166984883375310 
0.008707000499375830 
0.01716623001443924 
0.02642041314290277 
0.002033405216016021 
0.01419897916110014 
0.01714278002936184 
0.02657061282163705 
0.02642041314290277 
-0.02599730174728195 
0.006726292673294148 
0.01155728121781620 
0.06033926930835816 
-0.02599730174728195 
0.006777982456820536 
0.02642041314290276 
-0.1926337358276063 
-0.01660683531866902 
-0.06856579696107025 
0 
0 
0 
0 
0 
-8.673617379884035e-19 
0.009277633113540932 
0.002934993986230041 
-0.02649590585157578 
0.001564408774893158 
-8.673617379884035e-19 
0.009277633113540932 
0.0001800970931030540 
0 
-0.01594470993873625 
-0.002891321114105245 
0.07328456728168968 
0.08951861080829554 
-0.04293142021108065 
0.01633178574941344 
-0.01594470993873625 
0.05317639740930800 
0 
-0.05132594897333329 
0.01580517344165274 
0.001701149110185581 
0 
0 
0 
0.009791620436540686 
-0.03902538351006174 
0 
0 
-0.02115090240329954 
0.01024545784305773 
0.007494502273962221 
0 
-0.01624917032466889 
0.01415342602686256 
-0.01105913182411232 
0 
0 
-0.001409174169442338 
-0.03186216570215970 
0.03509047935618039 
0 
0 
0 
0.006259194601205827 
-0.01540268925457845 
0 
0.1129956005438684 
0 
0.005864025288672607 
0.0008885072874512570 
-0.06137945102264617 
0.01687959377697807 
-0.01413700214586803 
0.07846482594710813 
-0.03321934901244429 
0.01123277521861101 
0 
-0.01567007440899176 
-0.02293541155533438 
0.01687959377697807 
-5.421010862427522e-20 
-0.03256412644108576 
0.1253255931563268 
0 
-0.009907986390520254 
-0.08230787610766699 
0.06503969605565124 
-0.004164509275465751 
-0.004265637165917604 
0.02599514588238647 
0.004609390570333053 
0 
0.01221869071966429 
0.01930982370408239 
0.01365532914194546 
0.01221869071966429 
0.004313902841525236 
0.04130762352194716 
0.008013402763462990 
-0.1234138368314696 
-0.04157809914314748 
-0.002891321114105241 
0.01043207086456775 
0.09041601700275757 
-0.07328293683713442 
-0.03696648181266170 
0.01740342635614301 
-0.02718393634727372 
0.08288188871062922 
0.02908893280228287 
0.01740342635614301 
0.05666452674769672 
0.01740342635614301 
0.01740342635614301 
0.006804236111515036 
0.05156075520948048 
0.008141960621873428 
-0.007891436073329122 
-0.08308494206474150 
0.1159997988342411 
0.005900564922003472 
0.02114027782026965 
-1.301042606982605e-18 
0.02788573431450271 
-1.301042606982605e-18 
0.03953814809637517 
-1.301042606982605e-18 
0.001937601322317023 
-1.301042606982605e-18 
-0.04458736270341673 
0.01589546142978020 
0.1346064536731728 
0 
0.01220252228713852 
0.02851013602422176 
0.01490342825188880 
0.01221869071966429 
0 
0.06535184430910458 
-0.01440251414055819 
-0.04458736270341673 
-0.07025636236968101 
0.01217222244300029 
-0.07126493483720293 
-0.04243993560692653 
0.04262281962063221 
0.1554124308633559 
0.06109637329748343 
0.007667418692539632 
0.01674489395105383 
0.01786806663880970 
-0.04115176894849482 
0.01786806663880970 
-0.07628635562355791 
0.01786806663880970 
0.03291210283488075 
0.01708147304573357 
0.03384988344423635 
0 
0.04930967203458017 
0.07741026431311196 
0.04930967203458017 
0.1083550058655963 
0.1432875224274358 
0.08279794651243874 
0.07445582073468143 
0.01504403619607106 
0.05643170629604535 
0.006294889390307826 
0.08178901016162335 
-0.01296858437357602 
0.09631747382945081 
-0.01928295918175510 
-0.001283077927436176 
-0.03128290173011572 
0.01504403619607106 
-0.07227611311137312 
0.01504403619607106 
-0.04161138415470334 
-0.03171413580439931 
0.06561708173023534 
-0.05596916370036734 
-0.04905642817590165 
0.01719780689468294 
-0.01934388917648586 
0.03563929568793927 
0.02533731178642946 
0.1687191564597909 
0.03242067901381140 
0.03242067901381140 
-0.1352813911405843 
0.02314304590027047 
0.1144383339924370 
0.05627082160688381 
0.1252023078453129 
-8.673617379884035e-19 
-0.05816751238555325 
-0.07426395913325454 
0 
0 
0 
0 
-0.04812956504370786 
0.04632050705152850 
0.1095133058582895 
-0.009202464415008280 
0.02907881046870715 
0.09951230589354260 
0.1328307976238947 
0.05797456197065989 
0.004972178636773969 
-0.07619425411191832 
0.05797456197065989 
-0.04812956504370786 
-0.02506764366020411 
0.07659379905843106 
0.07659379905843106 
0.07350854615047919 
-0.05162089281367002 
0.01893845374191184 
0.01861923708777117 
0.01861923708777117 
0 
0 
0.01861923708777117 
0.01861923708777117 
0.04624612335129791 
-0.02125831230314086 
0.05742088855185457 
0.05721811380519831 
0 
-0.1347599805535906 
-0.007733686971757155 
0.02674348591902341 
-0.07512755639452016 
-0.01789018254796387 
0.02510903740337458 
-0.06720520797689332 
0.1425824347551187 
0.02674348591902342 
0.009811924316014502 
0.04025573671229897 
-0.02238990381448891 
-0.1431542462328422 
0.005822943608661593 
0.002287758181538962 
-0.1163564938007051 
-0.03183818394082863 
0.003964402761655078 
0 
-0.1085254905450907 
0.05140565357436102 
0 
0.004917231556577302 
0.02238353222873203 
0.1145259958308842 
-0.07285304325654354 
0.005310161074174161 
-0.003110886266356835 
-0.1146950828468847 
-0.02589844130416038 
0.04776167567394407 
-0.03987754939091202 
0.06930061199039086 
-0.04785973819416699 
0.1202009989695253 
0.05184008945299260 
0.02945141309866795 
0.09581476441665268 
-0.1158870374350307 
-0.003123680041468627 
-0.1086838065562716 
0.05321203563524067 
0.1134427221016679 
0.001206208977927861 
0.003192060244186818 
0.01741195021149898 
0.006828367459744061 
-0.06423182105060535 
0.02010819533347204 
0.1401882043062072 
0.06445913205797765 
0 
-0.03156773721802888 
0 
1.734723475976807e-18 
0 
0.1158876799595607 
1.734723475976807e-18 
-0.01427911657699205 
0.01355664136265614 
0.004451355738497359 
1.301042606982605e-18 
1.734723475976807e-18 
0 
0 
0 
0 
-1.734723475976807e-18 
-0.06162467098585600 
0.005168033929544654 
0.03113330831461569 
0 
0 
0 
0 
0 
0 
0 
-1.734723475976807e-18 
-0.01103324877436999 
-0.03157164052700940 
0.02797648324485958 
0 
0.01253956502256891 
0 
0 
0.02665832172489903 
0 
0.02665832172489903 
0 
-0.03399546291814844 
0.02977532501893367 
0.09000430023981373 
0 
0.004474885354834524 
0 
0.02107608317900643 
0.004474885354834524 
0 
0.03491929821961838 
-0.1761371579297879 
0.04923052301305941 
0.2211191705473924 
0.1033810098270279 
0 
0.03044441286478383 
0 
0.03080357665307001 
-0.06197585069039086 
0 
-0.05352767211277707 
0 
-0.09047124677649350 
0 
0.005713897223190928 
-0.05584848086321126 
0 
0 
-0.02978656926509324 
0.03328487668710192 
0 
0.07514237800010233 
8.673617379884035e-19 
0.1499274577631297 
0.02393210597840018 
-0.01976412506035392 
-0.04350759365884018 
0.1282923552594401 
0.07658938652659264 
0.04597574725123198 
0 
-0.09370412930915385 
0.01476211078026201 
0.1067354594467070 
-0.09442848312678680 
0.1405020359366936 
0.07568937665335666 
-0.002177508988415643 
-0.1064461020763610 
-0.08099290756062986 
0.005252961926083981 
-0.1545096275406570 
0.005252961926083981 
-0.05300342517591221 
-0.1764855850799846 
0.1115577992566295 
-0.009686172859618859 
0.03408809000954061 
0.007894669032129873 
0.04522383767103406 
-0.006425978339719646 
-0.08305965282295495 
-0.1599188831366136 
-0.05058364197064223 
-0.1929134816649026 
0.07774453020620116 
0.08913153793209089 
-0.04742903597622524 
0.03474795003185842 
0.05914086448114039 
0.05112661045171420 
0.01624845523012596 
0.08201753514189089 
-0.09387542494675567 
0.06995583660036427 
0.09612021780313380 
0.08652468528048944 
-0.09481917817642108 
0.1167552128955666 
0.06878921883659508 
0.07064618290254218 
0.1464831196497691 
0.06896656816646689 
0.03976053235845528 
0.2373363684498413 
0.02675773663590738 
0.06925621446301540 
0.04578109468357344 
0.07129198499764900 
-0.04573089220716652 
-0.01023521865439843 
0.1140785215341718 
0.02166994599373924 
-0.07884316258455099 
0.1611773112587462 
0.06522492493341796 
0.03135310113453747 
0.01902335804766605 
-0.01750327029180271 
-0.05353652912585422 
-0.1370704425606442 
-0.07251457632510510 
-0.03489995861053354 
-0.1139863705391524 
0.1667710082042724 
0.02965950716022682 
-0.06794274821668017 
-0.1071751638801437 
-0.1068252776620664 
-0.04271096619433160 
0.02208181458182535 
0.01711218598792958 
-0.01163750052522742 
-0.07894608799457917 
0.01711218598792958 
0.06239590115189820 
-0.1042990828359673 
-0.05709345608752899 
0.02633664958210204 
0.09184230985665962 
0.005566417752382143 
0.06449885003973306 
0.005566417752382138 
0.005566417752382133 
0.01879057030025767 
0.006037752244564679 
-0.005434372588072237 
0.03339852166115948 
-0.05903600044427007 
0.006236454826548267 
-0.1126147323525030 
0.05773286375044837 
-0.07533434724833586 
-0.006125274273220845 
0.02629256326840403 
-0.1396344141486939 
-0.01859640749506231 
0.09152204518107096 
0.1527853219210345 
0.1913150919694645 
-0.02559921022834761 
0.03856227560367606 
0.003761307966534209 
0.01367029561757466 
0.1096430217818464 
0.07751332895380203 
0.03139535569424348 
0.05178806580640601 
0.03590182621423479 
0.1249317487720662 
0.08155099542028976 
0.07368115231944065 
0.05217049793178557 
0.01273300668903712 
0.2021845216895355 
-0.2815477790732588 
0.05203417898970245 
0.004955701008418610 
-0.002840940160254236 
0 
-0.03726107252179422 
0.06318923423392576 
0.01688120574527318 
-0.02063102308771638 
0.03511887671576464 
0.1054047142450975 
0.04341021828908408 
-0.02569080162866409 
-0.06537737601410616 
-0.001688592527153860 
0.06999519486896237 
-0.07509585770093913 
0.03723411460469900 
0.04336753349375436 
-0.02722308808731381 
-0.1502410403068058 
-0.1144468579856785 
-0.09072948389885162 
-0.09154563315494874 
0.0006768833123596602 
-0.008905721320948499 
0.03229335023867623 
0.1230579907946640 
0.03026855869513844 
0.01316605874441556 
0.03511887671576462 
0.03511887671576462 
0.1702428378146461 
-0.03494541267809780 
0.04985285788560949 
-0.01261850079744132 
0.02123520543029031 
0.05603005371958184 
-0.04285966574690125 
0.08709097253507121 
